{"learner":{"attributes":{"best_iteration":"1099","best_ntree_limit":"1100","scikit_learn":"{\"use_label_encoder\": true, \"n_estimators\": 1100, \"objective\": \"binary:logistic\", \"max_depth\": 3, \"learning_rate\": 0.01, \"verbosity\": null, \"booster\": null, \"tree_method\": null, \"gamma\": 1.5, \"min_child_weight\": 2, \"max_delta_step\": null, \"subsample\": 0.5, \"colsample_bytree\": 0.5, \"colsample_bylevel\": null, \"colsample_bynode\": null, \"reg_alpha\": null, \"reg_lambda\": null, \"scale_pos_weight\": null, \"base_score\": null, \"missing\": NaN, \"num_parallel_tree\": null, \"random_state\": null, \"n_jobs\": null, \"monotone_constraints\": null, \"interaction_constraints\": null, \"importance_type\": null, \"gpu_id\": null, \"validate_parameters\": null, \"predictor\": null, \"enable_categorical\": false, \"kwargs\": {\"seed\": 1569}, \"classes_\": [0, 1], \"n_classes_\": 2, \"_le\": {\"classes_\": [0, 1]}, \"_estimator_type\": \"classifier\"}"},"feature_names":["Mineral1","Mineral2","Mineral3","Mineral5","Mineral6","Mineral7","Mineral8","Mineral9","Mineral10","Mineral11","Mineral15","Mineral16","Mineral17","Mineral20","Mineral21","Mineral23","Mineral24","Mineral25","Mineral26","Mineral27","Mineral28","Mineral29","Mineral30","Mineral31","Mineral32","Mineral33","Mineral34","Mineral42","Mineral43","Mineral46","Mineral47","Mineral48","Mineral49","Mineral50","Mineral51"],"feature_types":["float","float","float","float","float","float","float","float","float","float","float","float","float","float","float","float","float","float","float","float","float","float","float","float","float","float","float","float","float","float","float","float","float","float","float"],"gradient_booster":{"model":{"gbtree_model_param":{"num_trees":"1100","size_leaf_vector":"0"},"tree_info":[0,0,0,0,0,0,0,0,0,0,0,0,0,0,0,0,0,0,0,0,0,0,0,0,0,0,0,0,0,0,0,0,0,0,0,0,0,0,0,0,0,0,0,0,0,0,0,0,0,0,0,0,0,0,0,0,0,0,0,0,0,0,0,0,0,0,0,0,0,0,0,0,0,0,0,0,0,0,0,0,0,0,0,0,0,0,0,0,0,0,0,0,0,0,0,0,0,0,0,0,0,0,0,0,0,0,0,0,0,0,0,0,0,0,0,0,0,0,0,0,0,0,0,0,0,0,0,0,0,0,0,0,0,0,0,0,0,0,0,0,0,0,0,0,0,0,0,0,0,0,0,0,0,0,0,0,0,0,0,0,0,0,0,0,0,0,0,0,0,0,0,0,0,0,0,0,0,0,0,0,0,0,0,0,0,0,0,0,0,0,0,0,0,0,0,0,0,0,0,0,0,0,0,0,0,0,0,0,0,0,0,0,0,0,0,0,0,0,0,0,0,0,0,0,0,0,0,0,0,0,0,0,0,0,0,0,0,0,0,0,0,0,0,0,0,0,0,0,0,0,0,0,0,0,0,0,0,0,0,0,0,0,0,0,0,0,0,0,0,0,0,0,0,0,0,0,0,0,0,0,0,0,0,0,0,0,0,0,0,0,0,0,0,0,0,0,0,0,0,0,0,0,0,0,0,0,0,0,0,0,0,0,0,0,0,0,0,0,0,0,0,0,0,0,0,0,0,0,0,0,0,0,0,0,0,0,0,0,0,0,0,0,0,0,0,0,0,0,0,0,0,0,0,0,0,0,0,0,0,0,0,0,0,0,0,0,0,0,0,0,0,0,0,0,0,0,0,0,0,0,0,0,0,0,0,0,0,0,0,0,0,0,0,0,0,0,0,0,0,0,0,0,0,0,0,0,0,0,0,0,0,0,0,0,0,0,0,0,0,0,0,0,0,0,0,0,0,0,0,0,0,0,0,0,0,0,0,0,0,0,0,0,0,0,0,0,0,0,0,0,0,0,0,0,0,0,0,0,0,0,0,0,0,0,0,0,0,0,0,0,0,0,0,0,0,0,0,0,0,0,0,0,0,0,0,0,0,0,0,0,0,0,0,0,0,0,0,0,0,0,0,0,0,0,0,0,0,0,0,0,0,0,0,0,0,0,0,0,0,0,0,0,0,0,0,0,0,0,0,0,0,0,0,0,0,0,0,0,0,0,0,0,0,0,0,0,0,0,0,0,0,0,0,0,0,0,0,0,0,0,0,0,0,0,0,0,0,0,0,0,0,0,0,0,0,0,0,0,0,0,0,0,0,0,0,0,0,0,0,0,0,0,0,0,0,0,0,0,0,0,0,0,0,0,0,0,0,0,0,0,0,0,0,0,0,0,0,0,0,0,0,0,0,0,0,0,0,0,0,0,0,0,0,0,0,0,0,0,0,0,0,0,0,0,0,0,0,0,0,0,0,0,0,0,0,0,0,0,0,0,0,0,0,0,0,0,0,0,0,0,0,0,0,0,0,0,0,0,0,0,0,0,0,0,0,0,0,0,0,0,0,0,0,0,0,0,0,0,0,0,0,0,0,0,0,0,0,0,0,0,0,0,0,0,0,0,0,0,0,0,0,0,0,0,0,0,0,0,0,0,0,0,0,0,0,0,0,0,0,0,0,0,0,0,0,0,0,0,0,0,0,0,0,0,0,0,0,0,0,0,0,0,0,0,0,0,0,0,0,0,0,0,0,0,0,0,0,0,0,0,0,0,0,0,0,0,0,0,0,0,0,0,0,0,0,0,0,0,0,0,0,0,0,0,0,0,0,0,0,0,0,0,0,0,0,0,0,0,0,0,0,0,0,0,0,0,0,0,0,0,0,0,0,0,0,0,0,0,0,0,0,0,0,0,0,0,0,0,0,0,0,0,0,0,0,0,0,0,0,0,0,0,0,0,0,0,0,0,0,0,0,0,0,0,0,0,0,0,0,0,0,0,0,0,0,0,0,0,0,0,0,0,0,0,0,0,0,0,0,0,0,0,0,0,0,0,0,0,0,0,0,0,0,0,0,0,0,0,0,0,0,0,0,0,0,0,0,0,0,0,0,0,0,0,0,0,0,0,0,0,0,0,0,0,0,0,0,0,0,0,0,0,0,0,0,0,0,0,0,0,0,0,0,0,0,0,0,0,0,0,0,0,0,0,0,0,0,0,0,0,0,0,0,0,0,0,0,0,0,0,0,0,0,0,0,0,0,0,0,0,0,0,0,0,0,0,0,0,0,0,0,0,0,0,0,0,0,0,0,0,0,0,0,0,0,0,0,0,0,0,0,0,0,0,0,0,0,0,0,0,0,0,0,0,0,0,0,0,0,0,0,0,0,0,0,0,0,0,0,0,0,0,0,0,0,0,0,0,0,0,0,0,0,0,0,0,0,0,0,0,0,0,0,0,0,0,0,0,0,0,0,0,0,0,0,0,0,0,0,0],"trees":[{"base_weights":[-1.4183645E-1,-1.0280243E0,1.1475917E0,-1.5878484E0,8.5311747E-1,1.3786736E0,-4.2927932E-2,-1.7728068E0,-2.4534239E-1,1.3190949E0,-5.2193314E-1,1.6954113E0,3.9195976E-1,-5.2193314E-1,4.398763E-1],"categories":[],"categories_nodes":[],"categories_segments":[],"categories_sizes":[],"default_left":[true,true,true,true,true,true,true,false,false,false,false,false,false,true,true],"id":0,"left_children":[1,3,5,7,9,11,-1,-1,-1,-1,-1,-1,-1,-1,-1],"loss_changes":[7.061132E1,3.9834816E1,6.998123E0,6.644043E0,6.474827E0,5.946377E0,1.4020464E0,0E0,0E0,0E0,0E0,0E0,0E0,0E0,0E0],"parents":[2147483647,0,0,1,1,2,2,3,3,4,4,5,5,6,6],"right_children":[2,4,6,8,10,12,-1,-1,-1,-1,-1,-1,-1,-1,-1],"split_conditions":[4.0001707E3,4.6258335E0,2.4272564E1,3.6993275E5,5.473524E5,4.7777312E4,-4.2927932E-4,-1.7728068E-2,-2.4534238E-3,1.3190948E-2,-5.2193315E-3,1.6954113E-2,3.9195972E-3,-5.2193315E-3,4.3987627E-3],"split_indices":[0,20,20,4,4,3,0,0,0,0,0,0,0,2147483647,2147483647],"split_type":[0,0,0,0,0,0,0,0,0,0,0,0,0,0,0],"sum_hessian":[5.976228E1,3.5539623E1,2.4222656E1,2.750893E1,8.030692E0,2.0152903E1,4.0697546E0,2.3896206E1,3.6127234E0,6.02846E0,2.002232E0,1.4712053E1,5.4408484E0,2.002232E0,2.0675223E0],"tree_param":{"num_deleted":"2","num_feature":"35","num_nodes":"15","size_leaf_vector":"0"}},{"base_weights":[5.6811776E-3,-8.6298203E-1,1.6300455E0,-1.3283507E0,3.7501785E-1,4.2847016E-1,1.7378807E0,1.4682265E-1,-1.5089718E0,1.6005993E0,-5.148538E-1,1.8710892E0,4.3327162E-1],"categories":[],"categories_nodes":[],"categories_segments":[],"categories_sizes":[],"default_left":[true,true,true,true,true,false,true,false,false,false,false,false,false],"id":1,"left_children":[1,3,5,7,9,-1,11,-1,-1,-1,-1,-1,-1],"loss_changes":[8.557317E1,2.3266098E1,1.9932442E0,7.933174E0,1.3449659E1,0E0,2.5021324E0,0E0,0E0,0E0,0E0,0E0,0E0],"parents":[2147483647,0,0,1,1,2,2,3,3,4,4,6,6],"right_children":[2,4,6,8,10,-1,12,-1,-1,-1,-1,-1,-1],"split_conditions":[4.1775215E3,4.628354E0,1.4775416E-1,1.4894423E0,1.3534719E3,4.284702E-3,2.1795361E2,1.4682264E-3,-1.5089718E-2,1.6005993E-2,-5.1485375E-3,1.8710893E-2,4.332716E-3],"split_indices":[0,20,19,20,11,0,16,0,0,0,0,0,0],"split_type":[0,0,0,0,0,0,0,0,0,0,0,0,0],"sum_hessian":[5.8649143E1,3.8519012E1,2.013013E1,2.7942389E1,1.0576625E1,2.0673738E0,1.8062757E1,3.0684872E0,2.4873901E1,4.1131196E0,6.4635057E0,1.5995323E1,2.0674345E0],"tree_param":{"num_deleted":"0","num_feature":"35","num_nodes":"13","size_leaf_vector":"0"}},{"base_weights":[-1.780702E-1,-1.4156595E0,8.5888666E-1,-1.6855316E0,6.3729864E-1,-1.4668251E0,1.4280654E0,-1.7768646E0,-5.2899563E-1,-1.8887673E-1,1.6237946E0],"categories":[],"categories_nodes":[],"categories_segments":[],"categories_sizes":[],"default_left":[true,true,true,true,false,false,true,true,true,false,false],"id":2,"left_children":[1,3,5,-1,-1,-1,9,-1,-1,-1,-1],"loss_changes":[6.7953186E1,1.441856E1,4.037429E1,1.3376122E0,0E0,0E0,7.81958E0,0E0,0E0,0E0,0E0],"parents":[2147483647,0,0,1,1,2,2,3,3,6,6],"right_children":[2,4,6,-1,-1,-1,10,-1,-1,-1,-1],"split_conditions":[3.973679E5,1.0685797E-1,7.5607234E4,-1.6855316E-2,6.3729864E-3,-1.4668251E-2,4.7369376E-2,-1.7768646E-2,-5.289956E-3,-1.8887672E-3,1.6237944E-2],"split_indices":[7,33,2,20,0,0,34,2147483647,2147483647,0,0],"split_type":[0,0,0,0,0,0,0,0,0,0,0],"sum_hessian":[5.1003353E1,2.3085737E1,2.7917618E1,2.056176E1,2.523977E0,5.1789412E0,2.2738676E1,1.855971E1,2.0020504E0,2.4590635E0,2.0279612E1],"tree_param":{"num_deleted":"2","num_feature":"35","num_nodes":"11","size_leaf_vector":"0"}},{"base_weights":[1.6755186E-2,-8.8994706E-1,1.3840011E0,-1.5038941E0,1.1012032E0,1.7009107E0,4.7402333E-2,8.188695E-2,-1.7028856E0,-4.157753E-1,1.6694144E0,1.8382158E0,4.1986337E-1,-5.421089E-1,5.5820996E-1],"categories":[],"categories_nodes":[],"categories_segments":[],"categories_sizes":[],"default_left":[true,true,true,true,true,true,true,false,false,false,false,false,false,false,false],"id":3,"left_children":[1,3,5,7,9,11,13,-1,-1,-1,-1,-1,-1,-1,-1],"loss_changes":[7.0488304E1,4.346315E1,9.520767E0,8.521286E0,8.13892E0,2.446045E0,1.9205766E0,0E0,0E0,0E0,0E0,0E0,0E0,0E0,0E0],"parents":[2147483647,0,0,1,1,2,2,3,3,4,4,5,5,6,6],"right_children":[2,4,6,8,10,12,14,-1,-1,-1,-1,-1,-1,-1,-1],"split_conditions":[4.148501E3,1.6569641E-1,7.9942405E-1,1.5319636E-1,2.595953E0,5.4848737E-1,1.4654449E-1,8.1886945E-4,-1.7028855E-2,-4.1577527E-3,1.6694143E-2,1.8382158E-2,4.1986336E-3,-5.421089E-3,5.5820993E-3],"split_indices":[0,34,29,29,26,9,22,0,0,0,0,0,0,0,0],"split_type":[0,0,0,0,0,0,0,0,0,0,0,0,0,0,0],"sum_hessian":[5.4866306E1,3.31991E1,2.1667206E1,2.556206E1,7.6370397E0,1.7294167E1,4.373039E0,2.9156318E0,2.2646427E1,2.1541867E0,5.482853E0,1.5227158E1,2.0670097E0,2.0016747E0,2.3713644E0],"tree_param":{"num_deleted":"0","num_feature":"35","num_nodes":"15","size_leaf_vector":"0"}},{"base_weights":[-8.619124E-2,-1.4817978E0,7.043817E-1,-1.7211398E0,-2.1736268E-2,1.0938088E-1,1.4576131E0,8.343989E-1,-7.5145304E-1,4.4817987E-1,1.7763832E0],"categories":[],"categories_nodes":[],"categories_segments":[],"categories_sizes":[],"default_left":[true,true,true,false,false,true,true,false,false,false,false],"id":4,"left_children":[1,3,5,-1,-1,7,9,-1,-1,-1,-1],"loss_changes":[5.964116E1,6.786682E0,1.5339193E1,0E0,0E0,1.3359876E1,4.0885887E0,0E0,0E0,0E0,0E0],"parents":[2147483647,0,0,1,1,2,2,5,5,6,6],"right_children":[2,4,6,-1,-1,8,10,-1,-1,-1,-1],"split_conditions":[3.9328128E5,1.97525E-1,3.7753278E-1,-1.7211398E-2,-2.1736267E-4,2.4240235E-2,7.376911E2,8.343989E-3,-7.5145303E-3,4.4817985E-3,1.776383E-2],"split_indices":[7,34,34,0,0,33,17,0,0,0,0],"split_type":[0,0,0,0,0,0,0,0,0,0,0],"sum_hessian":[5.210965E1,1.8527872E1,3.358178E1,1.57648E1,2.7630725E0,1.9401302E1,1.4180475E1,1.0548106E1,8.853197E0,3.9807608E0,1.0199714E1],"tree_param":{"num_deleted":"0","num_feature":"35","num_nodes":"11","size_leaf_vector":"0"}},{"base_weights":[2.8446047E-2,-1.2999578E0,1.1365662E0,-1.6233414E0,7.893814E-1,-1.0309354E0,1.3654828E0,-4.830402E-1,-1.7146494E0,-4.0447766E-1,1.5341392E0],"categories":[],"categories_nodes":[],"categories_segments":[],"categories_sizes":[],"default_left":[true,true,true,true,false,false,true,true,true,false,false],"id":5,"left_children":[1,3,5,-1,-1,-1,9,-1,-1,-1,-1],"loss_changes":[7.981661E1,1.7949894E1,1.6068981E1,1.4301491E0,0E0,0E0,8.727013E0,0E0,0E0,0E0,0E0],"parents":[2147483647,0,0,1,1,2,2,3,3,6,6],"right_children":[2,4,6,-1,-1,-1,10,-1,-1,-1,-1],"split_conditions":[4.2223725E5,9.542936E4,7.2629305E4,-1.6233414E-2,7.893814E-3,-1.03093535E-2,3.2552538E0,-4.830402E-3,-1.7146494E-2,-4.0447763E-3,1.5341391E-2],"split_indices":[7,2,2,11,0,0,32,2147483647,2147483647,0,0],"split_type":[0,0,0,0,0,0,0,0,0,0,0],"sum_hessian":[5.221839E1,2.3669956E1,2.8548437E1,2.069055E1,2.979405E0,2.392401E0,2.6156034E1,2.0002797E0,1.8690271E1,2.1538863E0,2.400215E1],"tree_param":{"num_deleted":"2","num_feature":"35","num_nodes":"11","size_leaf_vector":"0"}},{"base_weights":[6.9860436E-2,-7.6736253E-1,1.5347397E0,-1.5020568E0,6.602868E-1,1.7941301E0,5.5108076E-1,-1.6920823E-1,-1.6573938E0,1.6568526E0,-4.6504468E-1,-4.374027E-1,1.3330119E0],"categories":[],"categories_nodes":[],"categories_segments":[],"categories_sizes":[],"default_left":[true,true,true,true,true,false,true,false,false,false,false,false,false],"id":6,"left_children":[1,3,5,7,9,-1,11,-1,-1,-1,-1,-1,-1],"loss_changes":[6.453966E1,3.6172943E1,3.8903694E0,4.3677216E0,1.4330101E1,0E0,4.782851E0,0E0,0E0,0E0,0E0,0E0,0E0],"parents":[2147483647,0,0,1,1,2,2,3,3,4,4,6,6],"right_children":[2,4,6,8,10,-1,12,-1,-1,-1,-1,-1,-1],"split_conditions":[4.1775215E3,1.7429653E-1,5.44073E5,7.698812E-1,1.3533539E1,1.79413E-2,2.6080826E-1,-1.6920823E-3,-1.6573938E-2,1.6568525E-2,-4.6504466E-3,-4.374027E-3,1.3330119E-2],"split_indices":[0,34,4,24,32,0,34,0,0,0,0,0,0],"split_type":[0,0,0,0,0,0,0,0,0,0,0,0,0],"sum_hessian":[5.0663715E1,3.254145E1,1.8122267E1,2.1450508E1,1.109094E1,1.36886425E1,4.4336233E0,2.4570866E0,1.8993422E1,5.6315E0,5.459441E0,2.1527817E0,2.2808414E0],"tree_param":{"num_deleted":"0","num_feature":"35","num_nodes":"13","size_leaf_vector":"0"}},{"base_weights":[4.0734917E-2,-1.3245596E0,8.4442973E-1,-1.5766271E0,5.005394E-1,-1.029358E0,1.2049159E0,-2.8619674E-1,-1.74747E0,-2.7816895E-1,-1.4135284E0,-1.3115196E0,1.4461781E0],"categories":[],"categories_nodes":[],"categories_segments":[],"categories_sizes":[],"default_left":[true,true,true,true,false,true,true,false,false,true,true,false,false],"id":7,"left_children":[1,3,5,7,-1,-1,11,-1,-1,-1,-1,-1,-1],"loss_changes":[5.9967113E1,1.011058E1,2.4456032E1,3.477871E0,0E0,1.362721E0,1.9676186E1,0E0,0E0,0E0,0E0,0E0,0E0],"parents":[2147483647,0,0,1,1,2,2,3,3,5,5,6,6],"right_children":[2,4,6,8,-1,-1,12,-1,-1,-1,-1,-1,-1],"split_conditions":[8.5919775E-2,9.928513E4,5.371537E3,1.1856058E0,5.005394E-3,-1.029358E-2,7.8102154E-1,-2.8619673E-3,-1.74747E-2,-2.7816894E-3,-1.4135284E-2,-1.3115196E-2,1.4461781E-2],"split_indices":[34,2,6,20,0,29,25,0,0,2147483647,2147483647,0,0],"split_type":[0,0,0,0,0,0,0,0,0,0,0,0,0],"sum_hessian":[5.2631355E1,1.926182E1,3.3369534E1,1.7043987E1,2.217833E0,5.084596E0,2.8284937E1,2.305444E0,1.47385435E1,2.3038435E0,2.7807527E0,2.0864613E0,2.6198475E1],"tree_param":{"num_deleted":"2","num_feature":"35","num_nodes":"13","size_leaf_vector":"0"}},{"base_weights":[-9.1907926E-2,-6.9311655E-1,1.5837864E0,-1.1016815E0,1.0225317E0,3.984755E-1,1.7470818E0,3.583654E-1,-1.3900837E0,1.6077157E0,-4.4695523E-1],"categories":[],"categories_nodes":[],"categories_segments":[],"categories_sizes":[],"default_left":[true,true,true,true,true,false,false,false,false,false,false],"id":8,"left_children":[1,3,5,7,9,-1,-1,-1,-1,-1,-1],"loss_changes":[5.5664864E1,2.9555635E1,2.130951E0,1.4494209E1,7.872595E0,0E0,0E0,0E0,0E0,0E0,0E0],"parents":[2147483647,0,0,1,1,2,2,3,3,4,4],"right_children":[2,4,6,8,10,-1,-1,-1,-1,-1,-1],"split_conditions":[3.7686974E-1,2.51996E0,4.559084E2,2.057321E-1,6.0668595E-2,3.984755E-3,1.7470818E-2,3.5836538E-3,-1.3900836E-2,1.6077157E-2,-4.469552E-3],"split_indices":[34,25,13,29,33,0,0,0,0,0,0],"split_type":[0,0,0,0,0,0,0,0,0,0,0],"sum_hessian":[5.3164032E1,3.955779E1,1.3606243E1,3.223839E1,7.3193965E0,2.0640616E0,1.1542182E1,5.277627E0,2.6960766E1,5.167508E0,2.1518884E0],"tree_param":{"num_deleted":"0","num_feature":"35","num_nodes":"11","size_leaf_vector":"0"}},{"base_weights":[6.40232E-2,-8.334392E-1,1.238607E0,-1.1856954E0,1.4760484E0,1.5321908E0,-1.7394741E-1,-1.3952656E0,6.1352634E-1,-4.2270804E-3,1.7870163E0],"categories":[],"categories_nodes":[],"categories_segments":[],"categories_sizes":[],"default_left":[true,true,true,true,false,true,false,false,false,false,false],"id":9,"left_children":[1,3,5,7,-1,9,-1,-1,-1,-1,-1],"loss_changes":[5.6780655E1,2.662526E1,9.932499E0,1.1068687E1,0E0,7.6027756E0,0E0,0E0,0E0,0E0,0E0],"parents":[2147483647,0,0,1,1,2,2,3,3,5,5],"right_children":[2,4,6,8,-1,10,-1,-1,-1,-1,-1],"split_conditions":[9.193757E4,2.3526983E0,2.4272564E1,4.493907E0,1.4760483E-2,1.4808995E-1,-1.739474E-3,-1.3952656E-2,6.1352635E-3,-4.2270804E-5,1.7870162E-2],"split_indices":[2,25,20,20,0,19,0,0,0,0,0],"split_type":[0,0,0,0,0,0,0,0,0,0,0],"sum_hessian":[5.1884907E1,2.9576714E1,2.2308193E1,2.608472E1,3.4919925E0,1.839939E1,3.9088035E0,2.3564487E1,2.5202334E0,2.7574322E0,1.5641957E1],"tree_param":{"num_deleted":"0","num_feature":"35","num_nodes":"11","size_leaf_vector":"0"}},{"base_weights":[2.607644E-2,-8.5245526E-1,1.3886583E0,-1.435907E0,8.009938E-1,1.6298618E0,-4.7241452E-1,1.9963052E-2,-1.625402E0,-1.9091645E-1,1.5472026E0,3.6020458E-1,1.7667671E0],"categories":[],"categories_nodes":[],"categories_segments":[],"categories_sizes":[],"default_left":[true,true,true,true,true,true,false,false,false,false,false,false,false],"id":10,"left_children":[1,3,5,7,9,11,-1,-1,-1,-1,-1,-1,-1],"loss_changes":[6.3170574E1,3.2119938E1,1.0052853E1,6.677704E0,6.9682574E0,2.5847778E0,0E0,0E0,0E0,0E0,0E0,0E0,0E0],"parents":[2147483647,0,0,1,1,2,2,3,3,4,4,5,5],"right_children":[2,4,6,8,10,12,-1,-1,-1,-1,-1,-1,-1],"split_conditions":[3.9856655E3,1.7429653E-1,6.2077555E4,1.2077416E0,2.8391333E0,6.462029E-1,-4.724145E-3,1.9963052E-4,-1.6254019E-2,-1.9091645E-3,1.5472026E-2,3.6020456E-3,1.7667672E-2],"split_indices":[0,34,1,20,26,24,0,0,0,0,0,0,0],"split_type":[0,0,0,0,0,0,0,0,0,0,0,0,0],"sum_hessian":[5.078205E1,3.1102764E1,1.9679285E1,2.308747E1,8.015295E0,1.7531374E1,2.1479118E0,2.7619965E0,2.0325472E1,3.7606034E0,4.2546916E0,2.0598073E0,1.5471566E1],"tree_param":{"num_deleted":"0","num_feature":"35","num_nodes":"13","size_leaf_vector":"0"}},{"base_weights":[-1.8252353E-1,-8.5304046E-1,1.5561267E0,-1.0532975E0,1.3623856E0,1.7228012E0,3.568135E-1,-2.3725173E-1,-1.3439736E0],"categories":[],"categories_nodes":[],"categories_segments":[],"categories_sizes":[],"default_left":[true,true,true,true,false,false,false,false,false],"id":11,"left_children":[1,3,5,7,-1,-1,-1,-1,-1],"loss_changes":[6.153256E1,1.8256475E1,2.329193E0,8.063133E0,0E0,0E0,0E0,0E0,0E0],"parents":[2147483647,0,0,1,1,2,2,3,3],"right_children":[2,4,6,8,-1,-1,-1,-1,-1],"split_conditions":[4.3213354E3,2.8226695E0,2.0918121E1,6.1020624E2,1.3623856E-2,1.7228011E-2,3.5681347E-3,-2.3725173E-3,-1.3439736E-2],"split_indices":[0,25,15,11,0,0,0,0,0],"split_type":[0,0,0,0,0,0,0,0,0],"sum_hessian":[5.0642998E1,3.691569E1,1.3727306E1,3.4336502E1,2.579188E0,1.1669104E1,2.0582025E0,9.495363E0,2.4841139E1],"tree_param":{"num_deleted":"0","num_feature":"35","num_nodes":"9","size_leaf_vector":"0"}},{"base_weights":[2.4395617E-2,-8.089709E-1,1.4811783E0,-1.4510641E0,4.597496E-1,1.7250345E0,6.9508386E-1,-1.620711E0,-3.3321995E-1,-6.6829425E-1,1.2808053E0,-4.7568157E-1,1.4104837E0],"categories":[],"categories_nodes":[],"categories_segments":[],"categories_sizes":[],"default_left":[true,true,true,true,true,false,true,false,false,false,false,false,false],"id":12,"left_children":[1,3,5,7,9,-1,11,-1,-1,-1,-1,-1,-1],"loss_changes":[6.555686E1,2.8664782E1,2.5665855E0,3.833027E0,1.2255656E1,0E0,5.9692693E0,0E0,0E0,0E0,0E0,0E0,0E0],"parents":[2147483647,0,0,1,1,2,2,3,3,4,4,6,6],"right_children":[2,4,6,8,10,-1,12,-1,-1,-1,-1,-1,-1],"split_conditions":[4.0657014E3,1.4163336E-1,1.4679342E3,7.707964E2,3.8051E0,1.7250344E-2,2.832999E-1,-1.620711E-2,-3.3321993E-3,-6.682942E-3,1.2808053E-2,-4.7568157E-3,1.4104837E-2],"split_indices":[0,34,11,13,20,0,31,0,0,0,0,0,0],"split_type":[0,0,0,0,0,0,0,0,0,0,0,0,0],"sum_hessian":[5.2012215E1,3.3368267E1,1.864395E1,2.2060057E1,1.1308209E1,1.3318081E1,5.3258686E0,1.8762724E1,3.2973325E0,4.841944E0,6.4662647E0,2.147131E0,3.1787374E0],"tree_param":{"num_deleted":"0","num_feature":"35","num_nodes":"13","size_leaf_vector":"0"}},{"base_weights":[-2.2488551E-2,-9.542854E-1,1.3190649E0,-1.4772E0,2.4479298E-1,-4.306972E-1,1.622169E0,-1.2745453E-1,-1.6325547E0,-6.236601E-1,1.4631674E0,7.8874826E-1,1.7411169E0],"categories":[],"categories_nodes":[],"categories_segments":[],"categories_sizes":[],"default_left":[true,true,true,true,true,false,true,false,false,false,false,true,true],"id":13,"left_children":[1,3,5,7,9,-1,-1,-1,-1,-1,-1,-1,-1],"loss_changes":[6.9184296E1,2.0831335E1,1.2733459E1,4.588524E0,1.2309835E1,0E0,5.6487274E-1,0E0,0E0,0E0,0E0,0E0,0E0],"parents":[2147483647,0,0,1,1,2,2,3,3,4,4,6,6],"right_children":[2,4,6,8,10,-1,-1,-1,-1,-1,-1,-1,-1],"split_conditions":[9.197219E4,4.8217012E5,1.4808995E-1,1.9222168E2,4.0875022E3,-4.306972E-3,1.6221689E-2,-1.2745453E-3,-1.6325546E-2,-6.2366007E-3,1.4631674E-2,7.887483E-3,1.7411169E-2],"split_indices":[2,7,19,18,0,0,15,0,0,0,0,2147483647,2147483647],"split_type":[0,0,0,0,0,0,0,0,0,0,0,0,0],"sum_hessian":[5.3338024E1,3.164628E1,2.1691746E1,2.1874798E1,9.771482E0,3.1406155E0,1.855113E1,2.4457912E0,1.9429007E1,5.989972E0,3.78151E0,3.2700717E0,1.5281057E1],"tree_param":{"num_deleted":"2","num_feature":"35","num_nodes":"13","size_leaf_vector":"0"}},{"base_weights":[4.8722267E-2,-1.169058E0,8.619263E-1,-1.4721198E0,6.4650995E-1,-9.413257E-1,1.2636697E0,-1.9796616E-1,-1.6444784E0,-1.8695319E-1,-1.3828331E0,1.5042292E0,3.2933065E-1],"categories":[],"categories_nodes":[],"categories_segments":[],"categories_sizes":[],"default_left":[true,true,true,true,false,true,true,false,false,false,false,false,false],"id":14,"left_children":[1,3,5,7,-1,9,11,-1,-1,-1,-1,-1,-1],"loss_changes":[5.1295395E1,1.2372681E1,2.3664278E1,3.647812E0,0E0,1.8149352E0,5.3030663E0,0E0,0E0,0E0,0E0,0E0,0E0],"parents":[2147483647,0,0,1,1,2,2,3,3,5,5,6,6],"right_children":[2,4,6,8,-1,10,12,-1,-1,-1,-1,-1,-1],"split_conditions":[3.9839712E5,9.96487E4,7.466219E4,4.277688E2,6.4650993E-3,2.6889417E-1,5.2368414E4,-1.9796616E-3,-1.6444784E-2,-1.8695318E-3,-1.3828331E-2,1.5042292E-2,3.2933066E-3],"split_indices":[7,2,2,11,0,22,3,0,0,0,0,0,0],"split_type":[0,0,0,0,0,0,0,0,0,0,0,0,0],"sum_hessian":[4.9780125E1,1.9756699E1,3.0023426E1,1.7092688E1,2.6640105E0,5.225467E0,2.479796E1,2.2926857E0,1.4800003E1,2.4547136E0,2.7707534E0,1.9235544E1,5.562416E0],"tree_param":{"num_deleted":"0","num_feature":"35","num_nodes":"13","size_leaf_vector":"0"}},{"base_weights":[-1.1334097E-1,-1.3546941E0,8.469813E-1,-9.799314E-2,-1.5629989E0,-1.2444031E0,1.0872414E0,-1.6747762E0,-3.565217E-1,1.4495975E0,-4.1291875E-1],"categories":[],"categories_nodes":[],"categories_segments":[],"categories_sizes":[],"default_left":[true,true,true,false,true,false,true,false,false,false,false],"id":15,"left_children":[1,3,5,-1,7,-1,9,-1,-1,-1,-1],"loss_changes":[7.0605576E1,6.6003647E0,1.8169159E1,0E0,2.3783417E0,0E0,1.720631E1,0E0,0E0,0E0,0E0],"parents":[2147483647,0,0,1,1,2,2,4,4,6,6],"right_children":[2,4,6,-1,8,-1,10,-1,-1,-1,-1],"split_conditions":[1.03744395E-1,2.648656E1,2.7923743E2,-9.799314E-4,7.7287915E2,-1.2444031E-2,5.3806492E4,-1.6747762E-2,-3.565217E-3,1.4495974E-2,-4.129187E-3],"split_indices":[34,23,17,0,13,0,8,0,0,0,0],"split_type":[0,0,0,0,0,0,0,0,0,0,0],"sum_hessian":[5.726544E1,2.47988E1,3.2466644E1,3.7351441E0,2.1063656E1,2.9148083E0,2.9551836E1,1.8922386E1,2.1412687E0,2.3829617E1,5.722219E0],"tree_param":{"num_deleted":"0","num_feature":"35","num_nodes":"11","size_leaf_vector":"0"}},{"base_weights":[2.6012903E-2,-1.1691588E0,9.006807E-1,-1.473311E0,6.496692E-1,1.6805488E0,4.6654445E-1,-1.6089591E0,-3.437249E-1,-8.0420125E-1,8.773388E-1],"categories":[],"categories_nodes":[],"categories_segments":[],"categories_sizes":[],"default_left":[true,true,true,true,false,false,true,false,false,false,false],"id":16,"left_children":[1,3,5,7,-1,-1,9,-1,-1,-1,-1],"loss_changes":[5.3715347E1,1.2974369E1,9.255629E0,2.3455238E0,0E0,0E0,1.1372082E1,0E0,0E0,0E0,0E0],"parents":[2147483647,0,0,1,1,2,2,3,3,6,6],"right_children":[2,4,6,8,-1,-1,10,-1,-1,-1,-1],"split_conditions":[2.7975834E5,3.025119E4,6.7334766E2,4.3886304E0,6.4966916E-3,1.6805487E-2,1.2857887E0,-1.608959E-2,-3.437249E-3,-8.042012E-3,8.773388E-3],"split_indices":[4,1,11,20,0,0,25,0,0,0,0],"split_type":[0,0,0,0,0,0,0,0,0,0,0],"sum_hessian":[4.9376324E1,2.0723053E1,2.8653273E1,1.7916882E1,2.806171E0,9.219912E0,1.9433361E1,1.5617099E1,2.2997823E0,4.5135465E0,1.4919816E1],"tree_param":{"num_deleted":"0","num_feature":"35","num_nodes":"11","size_leaf_vector":"0"}},{"base_weights":[1.1320952E-1,-1.276471E0,8.028949E-1,-1.5159056E0,1.1145711E-3,-2.0182188E-1,1.2976519E0,1.395263E0,-7.970912E-1,2.8116128E-1,1.5853065E0],"categories":[],"categories_nodes":[],"categories_segments":[],"categories_sizes":[],"default_left":[true,true,true,false,false,true,true,false,false,false,false],"id":17,"left_children":[1,3,5,-1,-1,7,9,-1,-1,-1,-1],"loss_changes":[5.019062E1,5.324478E0,1.760888E1,0E0,0E0,1.2881582E1,6.430664E0,0E0,0E0,0E0,0E0],"parents":[2147483647,0,0,1,1,2,2,5,5,6,6],"right_children":[2,4,6,-1,-1,8,10,-1,-1,-1,-1],"split_conditions":[3.4330862E5,4.2801075E0,2.8845768E0,-1.5159056E-2,1.1145711E-5,3.6075195E4,5.814406E2,1.395263E-2,-7.970911E-3,2.8116128E-3,1.5853064E-2],"split_indices":[7,20,26,0,0,8,13,0,0,0,0],"split_type":[0,0,0,0,0,0,0,0,0,0,0],"sum_hessian":[5.029755E1,1.6400528E1,3.3897022E1,1.3654901E1,2.745628E0,1.1379809E1,2.2517214E1,2.7249508E0,8.654859E0,5.4027696E0,1.7114445E1],"tree_param":{"num_deleted":"0","num_feature":"35","num_nodes":"11","size_leaf_vector":"0"}},{"base_weights":[2.3329343E-1,-1.0570738E0,1.0178256E0,-1.4413363E0,1.3027595E0,5.169307E-1,1.5057005E0,-2.9797676E-1,-1.5819558E0,1.3160926E0,-1.4032497E-1,1.6634789E0,3.051317E-1],"categories":[],"categories_nodes":[],"categories_segments":[],"categories_sizes":[],"default_left":[true,true,true,true,false,true,true,false,false,false,false,false,false],"id":18,"left_children":[1,3,5,7,-1,9,11,-1,-1,-1,-1,-1,-1],"loss_changes":[5.2270752E1,1.9661577E1,7.0316772E0,2.316555E0,0E0,9.267381E0,2.4601707E0,0E0,0E0,0E0,0E0,0E0,0E0],"parents":[2147483647,0,0,1,1,2,2,3,3,5,5,6,6],"right_children":[2,4,6,8,-1,10,12,-1,-1,-1,-1,-1,-1],"split_conditions":[3.9801816E5,6.2128104E-2,4.325116E3,1.800427E-3,1.3027595E-2,3.6735864E3,2.588334E-2,-2.9797675E-3,-1.5819557E-2,1.3160925E-2,-1.4032496E-3,1.6634788E-2,3.051317E-3],"split_indices":[7,27,0,28,0,0,30,0,0,0,0,0,0],"split_type":[0,0,0,0,0,0,0,0,0,0,0,0,0],"sum_hessian":[4.9571056E1,1.8611769E1,3.095929E1,1.6340235E1,2.2715347E0,1.6292027E1,1.4667262E1,2.1311498E0,1.4209085E1,6.899937E0,9.392089E0,1.2622802E1,2.0444608E0],"tree_param":{"num_deleted":"0","num_feature":"35","num_nodes":"13","size_leaf_vector":"0"}},{"base_weights":[8.355004E-2,-6.7247945E-1,1.3133172E0,-1.566376E0,8.4954E-2,1.6887074E0,-1.5271787E-1,-3.902505E-1,1.1103472E0],"categories":[],"categories_nodes":[],"categories_segments":[],"categories_sizes":[],"default_left":[true,true,true,false,true,false,false,false,false],"id":19,"left_children":[1,3,5,-1,7,-1,-1,-1,-1],"loss_changes":[4.9415417E1,2.2467972E1,1.1381306E1,0E0,9.596665E0,0E0,0E0,0E0,0E0],"parents":[2147483647,0,0,1,1,2,2,4,4],"right_children":[2,4,6,-1,8,-1,-1,-1,-1],"split_conditions":[5.039992E5,4.1932773E2,5.6068367E4,-1.566376E-2,1.1230817E5,1.6887072E-2,-1.5271787E-3,-3.902505E-3,1.1103471E-2],"split_indices":[7,17,8,0,5,0,0,0,0],"split_type":[0,0,0,0,0,0,0,0,0],"sum_hessian":[5.1199783E1,3.1987717E1,1.9212067E1,1.418228E1,1.7805437E1,1.5174601E1,4.037466E0,1.2590127E1,5.2153096E0],"tree_param":{"num_deleted":"0","num_feature":"35","num_nodes":"9","size_leaf_vector":"0"}},{"base_weights":[-9.216625E-2,-7.571743E-1,1.3509997E0,-1.3351558E0,8.752566E-1,1.6414762E0,3.123739E-1,-1.5069783E0,8.901842E-2,1.5557953E0,-2.3484689E-1],"categories":[],"categories_nodes":[],"categories_segments":[],"categories_sizes":[],"default_left":[true,true,true,true,true,false,false,false,false,false,false],"id":20,"left_children":[1,3,5,7,9,-1,-1,-1,-1,-1,-1],"loss_changes":[5.1408134E1,3.5682503E1,4.5919228E0,6.8417854E0,8.04777E0,0E0,0E0,0E0,0E0,0E0,0E0],"parents":[2147483647,0,0,1,1,2,2,3,3,4,4],"right_children":[2,4,6,8,10,-1,-1,-1,-1,-1,-1],"split_conditions":[4.1775215E3,4.605833E0,5.51694E5,9.200371E4,3.024677E-1,1.6414762E-2,3.123739E-3,-1.5069783E-2,8.901842E-4,1.5557953E-2,-2.3484689E-3],"split_indices":[0,20,4,2,22,0,0,0,0,0,0],"split_type":[0,0,0,0,0,0,0,0,0,0,0],"sum_hessian":[5.150005E1,3.558013E1,1.5919918E1,2.6411083E1,9.16905E0,1.1987029E1,3.932889E0,2.3515825E1,2.8952577E0,5.435426E0,3.7336245E0],"tree_param":{"num_deleted":"0","num_feature":"35","num_nodes":"11","size_leaf_vector":"0"}},{"base_weights":[-1.7439827E-1,-8.635245E-1,1.1251855E0,-1.315169E0,-4.5985937E-2,2.8455898E-1,1.6178561E0,5.0062174E-1,-1.5206764E0,9.616594E-1,-5.940852E-1,1.4029977E0,-7.064927E-1],"categories":[],"categories_nodes":[],"categories_segments":[],"categories_sizes":[],"default_left":[true,true,true,true,true,true,false,false,false,false,false,false,false],"id":21,"left_children":[1,3,5,7,9,11,-1,-1,-1,-1,-1,-1,-1],"loss_changes":[4.837085E1,1.2918871E1,7.3149357E0,9.197155E0,8.052167E0,1.0025672E1,0E0,0E0,0E0,0E0,0E0,0E0,0E0],"parents":[2147483647,0,0,1,1,2,2,3,3,4,4,5,5],"right_children":[2,4,6,8,10,12,-1,-1,-1,-1,-1,-1,-1],"split_conditions":[2.5081527E-1,9.621635E0,2.6808129E4,7.0078385E-1,3.8831701E0,3.7909293E0,1.6178561E-2,5.0062174E-3,-1.52067635E-2,9.616594E-3,-5.940852E-3,1.4029977E-2,-7.064927E-3],"split_indices":[34,14,1,24,12,12,0,0,0,0,0,0,0],"split_type":[0,0,0,0,0,0,0,0,0,0,0,0,0],"sum_hessian":[5.192589E1,3.415184E1,1.7774052E1,2.1606668E1,1.2545173E1,7.150681E0,1.062337E1,2.0507696E0,1.9555899E1,4.153921E0,8.391252E0,3.164152E0,3.986529E0],"tree_param":{"num_deleted":"0","num_feature":"35","num_nodes":"13","size_leaf_vector":"0"}},{"base_weights":[-6.9178805E-2,-1.0863658E0,8.623525E-1,-1.2721379E0,1.7755046E-1,-6.365272E-2,1.4057853E0,-1.4056392E0,-1.3251098E-1,1.4027478E0,-7.906641E-1,2.9699606E-1,1.5236516E0],"categories":[],"categories_nodes":[],"categories_segments":[],"categories_sizes":[],"default_left":[true,true,true,true,false,true,true,false,false,false,false,false,false],"id":22,"left_children":[1,3,5,7,-1,9,11,-1,-1,-1,-1,-1,-1],"loss_changes":[5.3678997E1,6.577282E0,1.4990805E1,3.4204597E0,0E0,1.3803931E1,1.9918861E0,0E0,0E0,0E0,0E0,0E0,0E0],"parents":[2147483647,0,0,1,1,2,2,3,3,5,5,6,6],"right_children":[2,4,6,8,-1,10,12,-1,-1,-1,-1,-1,-1],"split_conditions":[8.605878E4,1.7170639E1,2.8394816E0,3.0344477E4,1.7755046E-3,3.8646625E4,2.47211E1,-1.4056391E-2,-1.3251097E-3,1.4027477E-2,-7.906641E-3,2.9699604E-3,1.5236516E-2],"split_indices":[2,14,26,1,0,8,23,0,0,0,0,0,0],"split_type":[0,0,0,0,0,0,0,0,0,0,0,0,0],"sum_hessian":[5.4662113E1,2.6050268E1,2.8611845E1,2.2706354E1,3.3439138E0,1.0907841E1,1.7704004E1,2.0116404E1,2.58995E0,3.3073533E0,7.6004877E0,2.0393405E0,1.5664664E1],"tree_param":{"num_deleted":"0","num_feature":"35","num_nodes":"13","size_leaf_vector":"0"}},{"base_weights":[-5.070709E-2,-8.342165E-1,1.1211554E0,-1.0928794E0,6.049826E-1,1.4102789E0,-4.681102E-1,-1.284657E0,6.0876024E-1,-4.3896288E-1,1.3249217E0,1.5244756E0,2.8671584E-1],"categories":[],"categories_nodes":[],"categories_segments":[],"categories_sizes":[],"default_left":[true,true,true,true,true,true,false,false,false,false,false,false,false],"id":23,"left_children":[1,3,5,7,9,11,-1,-1,-1,-1,-1,-1,-1],"loss_changes":[5.2228195E1,1.3338087E1,1.1141834E1,1.0318146E1,4.964462E0,2.0712395E0,0E0,0E0,0E0,0E0,0E0,0E0,0E0],"parents":[2147483647,0,0,1,1,2,2,3,3,4,4,5,5],"right_children":[2,4,6,8,10,12,-1,-1,-1,-1,-1,-1,-1],"split_conditions":[9.200371E4,4.5471096E0,3.10933E1,8.505724E1,2.2245922E0,1.906663E2,-4.681102E-3,-1.28465695E-2,6.087602E-3,-4.389629E-3,1.3249217E-2,1.5244755E-2,2.8671583E-3],"split_indices":[2,20,32,16,26,16,0,0,0,0,0,0,0],"split_type":[0,0,0,0,0,0,0,0,0,0,0,0,0],"sum_hessian":[5.486457E1,3.305324E1,2.1811329E1,2.8221676E1,4.8315644E0,1.8549395E1,3.261934E0,2.558343E1,2.6382475E0,2.1313233E0,2.700241E0,1.6514112E1,2.035283E0],"tree_param":{"num_deleted":"0","num_feature":"35","num_nodes":"13","size_leaf_vector":"0"}},{"base_weights":[-1.4900966E-1,-8.942073E-1,1.0536785E0,-1.2701674E0,5.6488794E-1,1.6149156E0,1.789466E-1,5.358841E-1,-1.4444476E0,1.401422E0,-4.0344045E-1,1.0150527E0,-9.3902206E-1],"categories":[],"categories_nodes":[],"categories_segments":[],"categories_sizes":[],"default_left":[true,true,true,true,true,false,true,false,false,false,false,false,false],"id":24,"left_children":[1,3,5,7,9,-1,11,-1,-1,-1,-1,-1,-1],"loss_changes":[5.115661E1,1.9990847E1,1.0459227E1,9.664104E0,6.956908E0,0E0,1.0002855E1,0E0,0E0,0E0,0E0,0E0,0E0],"parents":[2147483647,0,0,1,1,2,2,3,3,4,4,6,6],"right_children":[2,4,6,8,10,-1,12,-1,-1,-1,-1,-1,-1],"split_conditions":[3.9896914E3,4.6258335E0,1.2725672E2,1.0618428E0,4.3776566E2,1.6149156E-2,6.4573437E-1,5.358841E-3,-1.4444476E-2,1.401422E-2,-4.034404E-3,1.0150527E-2,-9.39022E-3],"split_indices":[0,20,16,20,18,0,29,0,0,0,0,0,0],"split_type":[0,0,0,0,0,0,0,0,0,0,0,0,0],"sum_hessian":[5.5027824E1,3.413434E1,2.0893484E1,2.7243963E1,6.8903756E0,1.2211973E1,8.681511E0,2.215024E0,2.502894E1,3.4568021E0,3.4335732E0,5.019549E0,3.6619625E0],"tree_param":{"num_deleted":"0","num_feature":"35","num_nodes":"13","size_leaf_vector":"0"}},{"base_weights":[-3.9274167E-2,-1.3904201E0,6.921249E-1,-1.5737466E0,-1.0065754E-1,-6.699476E-1,1.0829818E0,-1.0909605E0,4.2594838E-1,1.6657668E0,3.1245995E-1],"categories":[],"categories_nodes":[],"categories_segments":[],"categories_sizes":[],"default_left":[true,true,true,false,false,true,true,false,false,false,false],"id":25,"left_children":[1,3,5,-1,-1,7,9,-1,-1,-1,-1],"loss_changes":[5.6826614E1,4.6144905E0,2.0606539E1,0E0,0E0,4.5915747E0,1.2681282E1,0E0,0E0,0E0,0E0],"parents":[2147483647,0,0,1,1,2,2,5,5,6,6],"right_children":[2,4,6,-1,-1,8,10,-1,-1,-1,-1],"split_conditions":[3.460635E5,1.6334395E-1,8.0836375E4,-1.5737465E-2,-1.0065753E-3,5.140437E5,4.2807844E4,-1.0909605E-2,4.259484E-3,1.6657667E-2,3.1245993E-3],"split_indices":[7,34,2,0,0,7,8,0,0,0,0],"split_type":[0,0,0,0,0,0,0,0,0,0,0],"sum_hessian":[5.5529804E1,1.9185865E1,3.634394E1,1.6605394E1,2.5804696E0,7.944525E0,2.8399416E1,5.7428026E0,2.2017221E0,1.5508033E1,1.2891384E1],"tree_param":{"num_deleted":"0","num_feature":"35","num_nodes":"11","size_leaf_vector":"0"}},{"base_weights":[-3.217942E-2,-8.127476E-1,1.0871861E0,-1.2861373E0,4.645646E-1,1.6229773E0,4.2899895E-1,-1.4935352E0,-5.6678826E-1,1.4767318E0,-1.0509247E0,-8.8614374E-1,1.164206E0],"categories":[],"categories_nodes":[],"categories_segments":[],"categories_sizes":[],"default_left":[true,true,true,true,true,false,true,false,false,false,false,false,false],"id":26,"left_children":[1,3,5,7,9,-1,11,-1,-1,-1,-1,-1,-1],"loss_changes":[4.7795097E1,2.0070456E1,7.233423E0,2.698532E0,1.6036402E1,0E0,1.2102426E1,0E0,0E0,0E0,0E0,0E0,0E0],"parents":[2147483647,0,0,1,1,2,2,3,3,4,4,6,6],"right_children":[2,4,6,8,10,-1,12,-1,-1,-1,-1,-1,-1],"split_conditions":[1.9438478E-1,1.9595068E0,1.1274121E0,8.9658785E0,4.715703E4,1.6229773E-2,9.356081E0,-1.4935351E-2,-5.6678825E-3,1.4767317E-2,-1.0509246E-2,-8.861437E-3,1.164206E-2],"split_indices":[34,25,19,14,3,0,15,0,0,0,0,0,0],"split_type":[0,0,0,0,0,0,0,0,0,0,0,0,0],"sum_hessian":[5.2690376E1,3.120446E1,2.1485914E1,2.2761734E1,8.442727E0,1.1036182E1,1.0449733E1,1.6832478E1,5.929256E0,5.07728E0,3.365447E0,3.6734126E0,6.77632E0],"tree_param":{"num_deleted":"0","num_feature":"35","num_nodes":"13","size_leaf_vector":"0"}},{"base_weights":[-1.2515335E-1,-7.348182E-1,9.8011243E-1,-1.079337E0,1.0534751E0,1.2787973E0,-4.261679E-2,6.653605E-1,-1.2692927E0,1.3460275E0,2.9282686E-1,1.4098091E0,2.764702E-1,4.3936965E-1,-5.4344505E-1],"categories":[],"categories_nodes":[],"categories_segments":[],"categories_sizes":[],"default_left":[true,true,true,true,true,true,true,false,false,true,true,false,false,false,false],"id":27,"left_children":[1,3,5,7,-1,11,13,-1,-1,-1,-1,-1,-1,-1,-1],"loss_changes":[3.7641293E1,2.3245634E1,6.1356335E0,1.0979908E1,1.0083637E0,1.6377296E0,1.5585781E0,0E0,0E0,0E0,0E0,0E0,0E0,0E0,0E0],"parents":[2147483647,0,0,1,1,2,2,3,3,4,4,5,5,6,6],"right_children":[2,4,6,8,-1,12,14,-1,-1,-1,-1,-1,-1,-1,-1],"split_conditions":[4.5686884E0,9.246856E1,2.238628E1,1.3033664E0,1.0534751E-2,4.815334E-1,6.850209E1,6.653605E-3,-1.2692926E-2,1.3460275E-2,2.9282686E-3,1.4098091E-2,2.764702E-3,4.3936963E-3,-5.43445E-3],"split_indices":[20,16,20,20,15,9,16,0,0,2147483647,2147483647,0,0,0,0],"split_type":[0,0,0,0,0,0,0,0,0,0,0,0,0,0,0],"sum_hessian":[5.3791927E1,3.488469E1,1.8907236E1,2.9582079E1,5.302611E0,1.4439771E1,4.4674654E0,2.658814E0,2.6923265E1,3.2738712E0,2.02874E0,1.2411018E1,2.0287526E0,2.3390896E0,2.128376E0],"tree_param":{"num_deleted":"2","num_feature":"35","num_nodes":"15","size_leaf_vector":"0"}},{"base_weights":[-2.2654947E-2,-1.0190705E0,1.0817432E0,-1.2358837E0,1.1765023E0,-3.8852644E-1,1.3136314E0,-1.4832523E0,-2.8259954E-1,3.65407E-1,1.4936409E0],"categories":[],"categories_nodes":[],"categories_segments":[],"categories_sizes":[],"default_left":[true,true,true,true,false,false,true,false,false,false,false],"id":28,"left_children":[1,3,5,7,-1,-1,9,-1,-1,-1,-1],"loss_changes":[5.980185E1,1.5047863E1,9.30151E0,5.82465E0,0E0,0E0,3.2948265E0,0E0,0E0,0E0,0E0],"parents":[2147483647,0,0,1,1,2,2,3,3,6,6],"right_children":[2,4,6,8,-1,-1,10,-1,-1,-1,-1],"split_conditions":[1.4092907E-1,9.5127E1,9.8801553E-1,7.566894E2,1.1765023E-2,-3.8852643E-3,1.8790925E0,-1.4832523E-2,-2.8259952E-3,3.6540697E-3,1.4936409E-2],"split_indices":[34,16,25,13,0,0,26,0,0,0,0],"split_type":[0,0,0,0,0,0,0,0,0,0,0],"sum_hessian":[5.2341846E1,2.7556736E1,2.478511E1,2.5477892E1,2.0788445E0,3.2844992E0,2.1500612E1,1.9787323E1,5.690568E0,3.9138424E0,1.758677E1],"tree_param":{"num_deleted":"0","num_feature":"35","num_nodes":"11","size_leaf_vector":"0"}},{"base_weights":[-1.2658195E-1,-8.1655884E-1,7.635632E-1,-1.2252601E0,1.8919878E-1,1.6019123E0,-1.0252189E-1,-1.3987154E0,-3.6140025E-1,8.8585997E-1,-1.1667787E0,-7.7342904E-1,9.556648E-1],"categories":[],"categories_nodes":[],"categories_segments":[],"categories_sizes":[],"default_left":[true,true,true,true,true,false,true,false,false,false,false,false,false],"id":29,"left_children":[1,3,5,7,9,-1,11,-1,-1,-1,-1,-1,-1],"loss_changes":[3.689062E1,1.4104191E1,1.9261223E1,3.11026E0,1.1063632E1,0E0,1.0590742E1,0E0,0E0,0E0,0E0,0E0,0E0],"parents":[2147483647,0,0,1,1,2,2,3,3,4,4,6,6],"right_children":[2,4,6,8,10,-1,12,-1,-1,-1,-1,-1,-1],"split_conditions":[9.193757E4,8.0065347E3,1.1922466E3,2.3096314E-1,4.6874875E4,1.6019123E-2,3.44545E-1,-1.3987154E-2,-3.6140024E-3,8.8586E-3,-1.1667786E-2,-7.7342903E-3,9.556648E-3],"split_indices":[2,6,11,31,3,0,31,0,0,0,0,0,0],"split_type":[0,0,0,0,0,0,0,0,0,0,0,0,0],"sum_hessian":[5.804971E1,3.2748264E1,2.5301445E1,2.3130621E1,9.617642E0,1.2424871E1,1.2876573E1,1.8747206E1,4.383415E0,6.5824656E0,3.0351765E0,8.045009E0,4.831564E0],"tree_param":{"num_deleted":"0","num_feature":"35","num_nodes":"13","size_leaf_vector":"0"}},{"base_weights":[-1.7085185E-2,-6.7318183E-1,1.1908287E0,-1.0041314E0,1.0374053E0,1.5873873E0,-4.829933E-2,7.6115584E-1,-1.216762E0,1.3357251E0,2.8687155E-1,4.438166E-1,-5.7959545E-1],"categories":[],"categories_nodes":[],"categories_segments":[],"categories_sizes":[],"default_left":[true,true,true,true,true,false,true,false,false,true,true,false,false],"id":30,"left_children":[1,3,5,7,-1,-1,11,-1,-1,-1,-1,-1,-1],"loss_changes":[4.2759377E1,2.0825752E1,9.411095E0,1.2107893E1,9.953699E-1,0E0,1.715108E0,0E0,0E0,0E0,0E0,0E0,0E0],"parents":[2147483647,0,0,1,1,2,2,3,3,4,4,6,6],"right_children":[2,4,6,8,-1,-1,12,-1,-1,-1,-1,-1,-1],"split_conditions":[4.1633057E3,3.7892985E-1,1.8604364E-2,1.4179386E0,1.0374052E-2,1.5873874E-2,1.2958806E3,7.6115583E-3,-1.216762E-2,1.335725E-2,2.8687154E-3,4.438166E-3,-5.7959543E-3],"split_indices":[0,34,30,20,10,0,10,0,0,2147483647,2147483647,0,0],"split_type":[0,0,0,0,0,0,0,0,0,0,0,0,0],"sum_hessian":[5.1942963E1,3.3946888E1,1.7996075E1,2.8789864E1,5.1570234E0,1.3420162E1,4.575912E0,2.81765E0,2.5972214E1,3.1323042E0,2.0247192E0,2.461026E0,2.1148858E0],"tree_param":{"num_deleted":"2","num_feature":"35","num_nodes":"13","size_leaf_vector":"0"}},{"base_weights":[1.00359716E-1,-1.0065349E0,9.5563364E-1,-1.3229877E0,3.9591482E-1,1.3149925E0,-1.02022946E-1,4.5557913E-1,-1.5689877E0,2.0272468E-1,1.6122763E0,1.2659242E0,-1.0313411E0],"categories":[],"categories_nodes":[],"categories_segments":[],"categories_sizes":[],"default_left":[true,true,true,true,false,true,true,false,false,false,false,false,false],"id":31,"left_children":[1,3,5,7,-1,9,11,-1,-1,-1,-1,-1,-1],"loss_changes":[4.8981937E1,1.0552359E1,1.1204752E1,8.882061E0,0E0,6.8856316E0,1.1875758E1,0E0,0E0,0E0,0E0,0E0,0E0],"parents":[2147483647,0,0,1,1,2,2,3,3,5,5,6,6],"right_children":[2,4,6,8,-1,10,12,-1,-1,-1,-1,-1,-1],"split_conditions":[9.621635E0,1.8779783E-1,2.0155655E1,1.6076808E0,3.959148E-3,8.627131E4,1.0716878E2,4.555791E-3,-1.5689878E-2,2.0272469E-3,1.6122762E-2,1.2659241E-2,-1.031341E-2],"split_indices":[14,34,20,20,0,2,16,0,0,0,0,0,0],"split_type":[0,0,0,0,0,0,0,0,0,0,0,0,0],"sum_hessian":[4.9723732E1,2.1596588E1,2.8127142E1,1.7666851E1,3.929738E0,2.0812418E1,7.3147225E0,2.043137E0,1.56237135E1,4.7442055E0,1.6068214E1,2.8125174E0,4.502205E0],"tree_param":{"num_deleted":"0","num_feature":"35","num_nodes":"13","size_leaf_vector":"0"}},{"base_weights":[-2.583049E-1,-9.9615985E-1,8.15592E-1,-1.2615403E0,5.9321836E-2,1.3214185E0,-3.250696E-1,-1.3678365E0,-1.1340743E-1,1.0241965E0,-1.3916222E0,1.5916244E0,1.6152732E-1,-1.0478884E0,6.751837E-1],"categories":[],"categories_nodes":[],"categories_segments":[],"categories_sizes":[],"default_left":[true,true,true,true,true,true,true,false,false,false,false,false,false,false,false],"id":32,"left_children":[1,3,5,7,9,11,13,-1,-1,-1,-1,-1,-1,-1,-1],"loss_changes":[4.889848E1,1.0276478E1,1.5006678E1,3.4022026E0,1.3006729E1,5.2903805E0,6.899493E0,0E0,0E0,0E0,0E0,0E0,0E0,0E0,0E0],"parents":[2147483647,0,0,1,1,2,2,3,3,4,4,5,5,6,6],"right_children":[2,4,6,8,10,12,14,-1,-1,-1,-1,-1,-1,-1,-1],"split_conditions":[1.9438559E-1,7.60573E2,4.8115644E-1,1.3809922E-1,5.2900493E-1,8.1872463E-1,1.2355158E5,-1.3678364E-2,-1.1340743E-3,1.0241965E-2,-1.3916221E-2,1.5916243E-2,1.6152732E-3,-1.0478884E-2,6.751837E-3],"split_indices":[34,13,9,34,29,29,5,0,0,0,0,0,0,0,0],"split_type":[0,0,0,0,0,0,0,0,0,0,0,0,0,0,0],"sum_hessian":[5.9685547E1,3.5420887E1,2.4264658E1,2.8148312E1,7.2725763E0,1.6700397E1,7.5642605E0,2.5587975E1,2.5603378E0,4.5445666E0,2.7280097E0,1.3243094E1,3.4573023E0,4.3634515E0,3.200809E0],"tree_param":{"num_deleted":"0","num_feature":"35","num_nodes":"15","size_leaf_vector":"0"}},{"base_weights":[-9.533292E-2,-7.2241676E-1,1.1923838E0,-1.1911564E0,6.4376116E-1,1.19078614E-1,1.4040043E0,-1.3599606E0,5.870572E-1,1.2392738E0,-7.8134483E-1,1.5525095E0,2.3162846E-1],"categories":[],"categories_nodes":[],"categories_segments":[],"categories_sizes":[],"default_left":[true,true,true,true,true,false,true,false,false,false,false,false,false],"id":33,"left_children":[1,3,5,7,9,-1,11,-1,-1,-1,-1,-1,-1],"loss_changes":[4.8336952E1,2.6485374E1,4.291786E0,9.879326E0,1.02260685E1,0E0,2.479271E0,0E0,0E0,0E0,0E0,0E0,0E0],"parents":[2147483647,0,0,1,1,2,2,3,3,4,4,6,6],"right_children":[2,4,6,8,10,-1,12,-1,-1,-1,-1,-1,-1],"split_conditions":[4.152836E3,4.588147E0,8.632008E4,9.399146E4,6.057788E2,1.1907861E-3,1.1399703E0,-1.3599605E-2,5.870572E-3,1.2392738E-2,-7.813448E-3,1.5525095E-2,2.3162845E-3],"split_indices":[0,20,2,2,18,0,29,0,0,0,0,0,0],"split_type":[0,0,0,0,0,0,0,0,0,0,0,0,0],"sum_hessian":[5.7792793E1,3.916128E1,1.8631512E1,2.9252703E1,9.908578E0,3.3258815E0,1.530563E1,2.6931345E1,2.321358E0,7.08031E0,2.8282683E0,1.3297047E1,2.008583E0],"tree_param":{"num_deleted":"0","num_feature":"35","num_nodes":"13","size_leaf_vector":"0"}},{"base_weights":[-1.9857787E-2,-7.757103E-1,1.09489E0,-1.2537563E0,5.8944535E-1,-3.4237358E-1,1.2870743E0,-4.6419042E-1,-1.4556751E0,1.4353606E0,-1.0217676E0,1.5668669E0,3.2421085E-1],"categories":[],"categories_nodes":[],"categories_segments":[],"categories_sizes":[],"default_left":[true,true,true,true,true,false,true,false,false,false,false,false,false],"id":34,"left_children":[1,3,5,7,9,-1,11,-1,-1,-1,-1,-1,-1],"loss_changes":[4.0494812E1,1.9420013E1,5.8067913E0,2.7553215E0,1.251239E1,0E0,4.1650105E0,0E0,0E0,0E0,0E0,0E0,0E0],"parents":[2147483647,0,0,1,1,2,2,3,3,4,4,6,6],"right_children":[2,4,6,8,10,-1,12,-1,-1,-1,-1,-1,-1],"split_conditions":[9.190605E4,5.0352172E5,2.6636646E1,2.1289572E2,3.234562E1,-3.4237357E-3,1.8807769E-2,-4.641904E-3,-1.4556751E-2,1.4353605E-2,-1.0217676E-2,1.5668668E-2,3.2421085E-3],"split_indices":[2,7,16,18,23,0,30,0,0,0,0,0,0],"split_type":[0,0,0,0,0,0,0,0,0,0,0,0,0],"sum_hessian":[4.6052223E1,2.762517E1,1.8427052E1,2.0520845E1,7.104325E0,2.081196E0,1.6345856E1,4.850962E0,1.5669883E1,4.730088E0,2.3742368E0,1.2179416E1,4.1664405E0],"tree_param":{"num_deleted":"0","num_feature":"35","num_nodes":"13","size_leaf_vector":"0"}},{"base_weights":[8.439344E-3,-7.574313E-1,1.3424363E0,-1.251089E0,7.673927E-1,4.255617E-1,1.5561055E0,-1.4254521E0,4.6355495E-1,1.1939714E0,-4.1718525E-1,1.1742353E0,-4.073096E-1],"categories":[],"categories_nodes":[],"categories_segments":[],"categories_sizes":[],"default_left":[true,true,true,true,true,true,false,false,false,false,false,false,false],"id":35,"left_children":[1,3,5,7,9,11,-1,-1,-1,-1,-1,-1,-1],"loss_changes":[5.9026474E1,2.8593103E1,3.4654503E0,9.065426E0,5.348079E0,3.8195498E0,0E0,0E0,0E0,0E0,0E0,0E0,0E0],"parents":[2147483647,0,0,1,1,2,2,3,3,4,4,5,5],"right_children":[2,4,6,8,10,12,-1,-1,-1,-1,-1,-1,-1],"split_conditions":[4.172435E3,1.6456524E-1,8.627131E4,9.501503E4,1.1346148E2,2.623329E-1,1.5561054E-2,-1.4254521E-2,4.635549E-3,1.1939714E-2,-4.1718525E-3,1.1742353E-2,-4.073096E-3],"split_indices":[0,34,2,2,16,9,0,0,0,0,0,0,0],"split_type":[0,0,0,0,0,0,0,0,0,0,0,0,0],"sum_hessian":[5.577931E1,3.5709866E1,2.006944E1,2.7111961E1,8.597905E0,4.3584785E0,1.5710962E1,2.4762506E1,2.3494537E0,6.315646E0,2.282259E0,2.0794146E0,2.2790642E0],"tree_param":{"num_deleted":"0","num_feature":"35","num_nodes":"13","size_leaf_vector":"0"}},{"base_weights":[1.187266E-1,-8.65218E-1,1.1171645E0,-1.3080657E0,1.3445935E0,1.57594E0,5.877026E-1,-1.4051458E0,-2.3816535E-1,1.1733017E0,-3.786722E-1],"categories":[],"categories_nodes":[],"categories_segments":[],"categories_sizes":[],"default_left":[true,true,true,true,false,false,true,false,false,false,false],"id":36,"left_children":[1,3,5,7,-1,-1,9,-1,-1,-1,-1],"loss_changes":[5.204081E1,2.7934683E1,5.4478188E0,2.0323906E0,0E0,0E0,8.240608E0,0E0,0E0,0E0,0E0],"parents":[2147483647,0,0,1,1,2,2,3,3,6,6],"right_children":[2,4,6,8,-1,-1,10,-1,-1,-1,-1],"split_conditions":[1.404525E-1,4.0875022E3,4.9503482E2,4.2769904E0,1.3445935E-2,1.57594E-2,6.869546E-1,-1.4051457E-2,-2.3816535E-3,1.1733017E-2,-3.786722E-3],"split_indices":[34,0,18,12,0,0,29,0,0,0,0],"split_type":[0,0,0,0,0,0,0,0,0,0,0],"sum_hessian":[5.098883E1,2.5748007E1,2.5240822E1,2.1789452E1,3.9585564E0,1.2464187E1,1.2776634E1,1.968953E1,2.0999222E0,7.8223543E0,4.9542804E0],"tree_param":{"num_deleted":"0","num_feature":"35","num_nodes":"11","size_leaf_vector":"0"}},{"base_weights":[2.241318E-2,-8.926634E-1,7.707307E-1,-1.2449814E0,-4.838093E-3,-2.4279368E-3,1.2706811E0,-5.8786815E-1,-1.3890316E0,6.117865E-1,-1.0514829E0,1.351906E0,-7.516051E-1,1.5592958E0,-5.453259E-1],"categories":[],"categories_nodes":[],"categories_segments":[],"categories_sizes":[],"default_left":[true,true,true,true,true,true,true,true,true,false,false,false,false,false,false],"id":37,"left_children":[1,3,5,-1,9,11,13,-1,-1,-1,-1,-1,-1,-1,-1],"loss_changes":[3.5317276E1,7.25519E0,1.0964222E1,7.5616646E-1,5.5474668E0,1.3327584E1,9.877399E0,0E0,0E0,0E0,0E0,0E0,0E0,0E0,0E0],"parents":[2147483647,0,0,1,1,2,2,3,3,4,4,5,5,6,6],"right_children":[2,4,6,-1,10,12,14,-1,-1,-1,-1,-1,-1,-1,-1],"split_conditions":[9.200368E4,6.780661E3,2.8571572E0,-1.2449814E-2,4.7825305E4,6.246127E2,2.0315316E5,-5.8786813E-3,-1.3890316E-2,6.1178645E-3,-1.0514829E-2,1.3519059E-2,-7.5160507E-3,1.5592958E-2,-5.4532588E-3],"split_indices":[5,6,26,23,3,11,5,2147483647,2147483647,0,0,0,0,0,0],"split_type":[0,0,0,0,0,0,0,0,0,0,0,0,0,0,0],"sum_hessian":[4.9570824E1,2.2213839E1,2.7356985E1,1.5615012E1,6.598827E0,1.1133893E1,1.6223093E1,3.72117E0,1.1893843E1,4.413889E0,2.184938E0,3.6788635E0,7.4550295E0,1.4120335E1,2.1027586E0],"tree_param":{"num_deleted":"2","num_feature":"35","num_nodes":"15","size_leaf_vector":"0"}},{"base_weights":[-1.0007481E-1,-1.264648E0,7.0396745E-1,-1.4435936E0,3.2721853E-1,-9.612928E-1,1.0474612E0,-1.4302516E-1,-1.4069376E0,1.4513048E0,1.608464E-1],"categories":[],"categories_nodes":[],"categories_segments":[],"categories_sizes":[],"default_left":[true,true,true,false,false,true,true,false,false,false,false],"id":38,"left_children":[1,3,5,-1,-1,7,9,-1,-1,-1,-1],"loss_changes":[5.0576744E1,6.7478333E0,1.9329952E1,0E0,0E0,1.9863572E0,9.446154E0,0E0,0E0,0E0,0E0],"parents":[2147483647,0,0,1,1,2,2,5,5,6,6],"right_children":[2,4,6,-1,-1,8,10,-1,-1,-1,-1],"split_conditions":[3.9396297E5,8.5528955E2,7.5660016E4,-1.4435936E-2,3.2721853E-3,3.861435E0,4.7666855E4,-1.4302515E-3,-1.4069376E-2,1.4513047E-2,1.6084639E-3],"split_indices":[7,17,2,0,0,12,8,0,0,0,0],"split_type":[0,0,0,0,0,0,0,0,0,0,0],"sum_hessian":[5.206309E1,2.1030172E1,3.1032919E1,1.8988743E1,2.0414283E0,4.9990253E0,2.6033894E1,2.228366E0,2.7706597E0,1.7449104E1,8.58479E0],"tree_param":{"num_deleted":"0","num_feature":"35","num_nodes":"11","size_leaf_vector":"0"}},{"base_weights":[6.396824E-2,-1.0238816E0,6.652038E-1,-1.2624049E0,4.4927263E-1,-9.599697E-1,9.267625E-1,-1.5315808E-1,-1.4124233E0,-1.2395201E0,-3.7534148E-1,1.2467828E0,9.394389E-2],"categories":[],"categories_nodes":[],"categories_segments":[],"categories_sizes":[],"default_left":[true,true,true,true,false,true,true,false,false,true,true,false,false],"id":39,"left_children":[1,3,5,7,-1,-1,11,-1,-1,-1,-1,-1,-1],"loss_changes":[3.419148E1,7.113777E0,1.5173929E1,2.4956646E0,0E0,3.7639046E-1,7.73295E0,0E0,0E0,0E0,0E0,0E0,0E0],"parents":[2147483647,0,0,1,1,2,2,3,3,5,5,6,6],"right_children":[2,4,6,8,-1,-1,12,-1,-1,-1,-1,-1,-1],"split_conditions":[8.159316E4,5.36822E5,3.279831E5,7.4655557E-1,4.492726E-3,-9.599697E-3,1.6277161E3,-1.5315808E-3,-1.4124232E-2,-1.23952E-2,-3.7534146E-3,1.2467828E-2,9.394388E-4],"split_indices":[2,7,7,25,0,2,10,0,0,2147483647,2147483647,0,0],"split_type":[0,0,0,0,0,0,0,0,0,0,0,0,0],"sum_hessian":[5.0234898E1,1.7631058E1,3.260384E1,1.5297283E1,2.333775E0,4.1497188E0,2.845412E1,2.0631483E0,1.3234135E1,2.0495195E0,2.1001992E0,2.0196367E1,8.257753E0],"tree_param":{"num_deleted":"2","num_feature":"35","num_nodes":"13","size_leaf_vector":"0"}},{"base_weights":[7.502179E-2,-7.81661E-1,9.236157E-1,-1.1091002E0,1.2502805E0,-5.8611625E-1,1.1330297E0,-4.7898218E-1,-1.4890373E0,1.5463023E0,2.983677E-1],"categories":[],"categories_nodes":[],"categories_segments":[],"categories_sizes":[],"default_left":[true,true,true,true,false,false,true,false,false,false,false],"id":40,"left_children":[1,3,5,7,-1,-1,9,-1,-1,-1,-1],"loss_changes":[3.754255E1,1.8516462E1,8.853556E0,4.7219563E0,0E0,0E0,7.5028896E0,0E0,0E0,0E0,0E0],"parents":[2147483647,0,0,1,1,2,2,3,3,6,6],"right_children":[2,4,6,8,-1,-1,10,-1,-1,-1,-1],"split_conditions":[1.7214158E-1,2.250351E0,7.4137016E4,4.0181965E-1,1.2502804E-2,-5.861162E-3,4.8116112E-1,-4.789822E-3,-1.4890373E-2,1.54630225E-2,2.983677E-3],"split_indices":[34,25,2,29,0,0,9,0,0,0,0],"split_type":[0,0,0,0,0,0,0,0,0,0,0],"sum_hessian":[4.9649002E1,2.4745998E1,2.4903004E1,2.1702839E1,3.0431583E0,2.8143837E0,2.208862E1,9.013996E0,1.2688844E1,1.4203382E1,7.885238E0],"tree_param":{"num_deleted":"0","num_feature":"35","num_nodes":"11","size_leaf_vector":"0"}},{"base_weights":[-7.204348E-2,-8.3311236E-1,1.0078615E0,-1.4276567E0,-1.4971234E-1,3.3439998E-2,1.382849E0,3.9743355E-1,-1.2490989E0,8.185215E-1,-9.852811E-1,1.5292299E0,2.7564487E-1],"categories":[],"categories_nodes":[],"categories_segments":[],"categories_sizes":[],"default_left":[true,true,true,false,true,true,true,false,false,false,false,false,false],"id":41,"left_children":[1,3,5,-1,7,9,11,-1,-1,-1,-1,-1,-1],"loss_changes":[4.5163525E1,1.2862316E1,8.265558E0,0E0,1.0174664E1,6.6816964E0,2.2366962E0,0E0,0E0,0E0,0E0,0E0,0E0],"parents":[2147483647,0,0,1,1,2,2,4,4,5,5,6,6],"right_children":[2,4,6,-1,8,10,12,-1,-1,-1,-1,-1,-1],"split_conditions":[9.190605E4,3.4629538E5,9.4977534E-1,-1.4276566E-2,1.7523677E3,1.353717E3,1.946882E2,3.9743353E-3,-1.2490989E-2,8.185214E-3,-9.852811E-3,1.5292298E-2,2.7564487E-3],"split_indices":[2,7,24,0,10,11,16,0,0,0,0,0,0],"split_type":[0,0,0,0,0,0,0,0,0,0,0,0,0],"sum_hessian":[5.2929718E1,3.1182331E1,2.1747385E1,1.6092836E1,1.5089494E1,6.3460565E0,1.5401329E1,1.0501548E1,4.587946E0,3.6950061E0,2.6510506E0,1.3266263E1,2.1350658E0],"tree_param":{"num_deleted":"0","num_feature":"35","num_nodes":"13","size_leaf_vector":"0"}},{"base_weights":[-2.7853703E-2,-8.6470383E-1,1.0877311E0,-1.1907679E0,6.223262E-1,-9.526289E-1,1.3308173E0,-1.362774E0,4.1288114E-1,-1.9358964E-1,1.2309718E0,1.4333693E0,2.6822355E-1],"categories":[],"categories_nodes":[],"categories_segments":[],"categories_sizes":[],"default_left":[true,true,true,true,true,false,true,false,false,false,false,false,false],"id":42,"left_children":[1,3,5,7,9,-1,11,-1,-1,-1,-1,-1,-1],"loss_changes":[5.180065E1,1.610417E1,1.3068945E1,7.825531E0,3.3942113E0,0E0,1.9777794E0,0E0,0E0,0E0,0E0,0E0,0E0],"parents":[2147483647,0,0,1,1,2,2,3,3,4,4,6,6],"right_children":[2,4,6,8,10,-1,12,-1,-1,-1,-1,-1,-1],"split_conditions":[9.0508875E4,4.5686884E0,3.19815E2,4.181375E3,2.6206498E4,-9.526289E-3,1.9424486E5,-1.362774E-2,4.1288114E-3,-1.9358963E-3,1.2309718E-2,1.4333692E-2,2.6822356E-3],"split_indices":[2,20,17,0,1,0,5,0,0,0,0,0,0],"split_type":[0,0,0,0,0,0,0,0,0,0,0,0,0],"sum_hessian":[5.347871E1,3.0685232E1,2.2793478E1,2.533025E1,5.354984E0,2.1157656E0,2.0677713E1,2.3012184E1,2.3180652E0,2.5792804E0,2.7757032E0,1.8539513E1,2.1382012E0],"tree_param":{"num_deleted":"0","num_feature":"35","num_nodes":"13","size_leaf_vector":"0"}},{"base_weights":[1.2131419E-1,-6.7895097E-1,8.836252E-1,3.958114E-1,-1.1254557E0,-4.7063652E-1,1.0982243E0,-7.2831446E-1,1.3612847E0,-1.3620508E0,-2.2919609E-1,1.4016443E0,8.996642E-2],"categories":[],"categories_nodes":[],"categories_segments":[],"categories_sizes":[],"default_left":[true,true,true,true,true,false,true,false,false,false,false,false,false],"id":43,"left_children":[1,3,5,7,9,-1,11,-1,-1,-1,-1,-1,-1],"loss_changes":[2.9860348E1,1.1945915E1,7.7821426E0,9.42837E0,3.3332253E0,0E0,6.567377E0,0E0,0E0,0E0,0E0,0E0,0E0],"parents":[2147483647,0,0,1,1,2,2,3,3,4,4,6,6],"right_children":[2,4,6,8,10,-1,12,-1,-1,-1,-1,-1,-1],"split_conditions":[1.393204E-1,2.5495046E-1,9.8809314E-1,8.743872E4,2.0427155E0,-4.706365E-3,2.0177824E1,-7.2831446E-3,1.3612847E-2,-1.3620507E-2,-2.2919609E-3,1.4016443E-2,8.996641E-4],"split_indices":[34,29,25,5,25,0,20,0,0,0,0,0,0],"split_type":[0,0,0,0,0,0,0,0,0,0,0,0,0],"sum_hessian":[4.6963882E1,2.2964926E1,2.3998957E1,6.7737236E0,1.6191202E1,3.1195345E0,2.0879421E1,3.2432096E0,3.530514E0,1.2398527E1,3.792674E0,1.5749639E1,5.129783E0],"tree_param":{"num_deleted":"0","num_feature":"35","num_nodes":"13","size_leaf_vector":"0"}},{"base_weights":[4.1957278E-2,-1.2138578E0,9.445499E-1,-1.3959204E0,3.203987E-1,-9.9829614E-1,1.1401001E0,-6.503676E-1,-1.4603914E0,-3.8758793E-1,1.2779807E0],"categories":[],"categories_nodes":[],"categories_segments":[],"categories_sizes":[],"default_left":[true,true,true,true,false,false,true,true,true,false,false],"id":44,"left_children":[1,3,5,-1,-1,-1,9,-1,-1,-1,-1],"loss_changes":[5.984975E1,6.6190186E0,1.2799915E1,8.544922E-3,0E0,0E0,6.4679527E0,0E0,0E0,0E0,0E0],"parents":[2147483647,0,0,1,1,2,2,3,3,6,6],"right_children":[2,4,6,-1,-1,-1,10,-1,-1,-1,-1],"split_conditions":[3.9436112E5,2.1932058E0,2.2000362E5,-1.3959204E-2,3.203987E-3,-9.982961E-3,5.226624E3,-6.503676E-3,-1.4603914E-2,-3.8758793E-3,1.2779807E-2],"split_indices":[7,25,4,11,0,0,6,2147483647,2147483647,0,0],"split_type":[0,0,0,0,0,0,0,0,0,0,0],"sum_hessian":[5.078981E1,2.109483E1,2.9694979E1,1.8937746E1,2.1570835E0,2.3401248E0,2.7354855E1,2.3897762E0,1.654797E1,2.1145892E0,2.5240265E1],"tree_param":{"num_deleted":"2","num_feature":"35","num_nodes":"11","size_leaf_vector":"0"}},{"base_weights":[1.4378434E-1,-1.0664471E0,8.4110254E-1,1.4679E-1,-1.295492E0,1.5107882E0,1.9139378E-1,-6.760321E-1,-1.4746196E0,-9.843278E-1,6.493243E-1],"categories":[],"categories_nodes":[],"categories_segments":[],"categories_sizes":[],"default_left":[true,true,true,false,true,false,true,true,true,false,false],"id":45,"left_children":[1,3,5,-1,-1,-1,9,-1,-1,-1,-1],"loss_changes":[3.9105568E1,4.9119015E0,1.2452187E1,0E0,6.004162E-1,0E0,9.258152E0,0E0,0E0,0E0,0E0],"parents":[2147483647,0,0,1,1,2,2,4,4,6,6],"right_children":[2,4,6,-1,-1,-1,10,-1,-1,-1,-1],"split_conditions":[8.613479E0,1.9332095E2,4.048411E-1,1.4679E-3,-1.29549205E-2,1.5107881E-2,9.249857E-3,-6.760321E-3,-1.4746196E-2,-9.843278E-3,6.493243E-3],"split_indices":[14,18,29,0,11,0,33,2147483647,2147483647,0,0],"split_type":[0,0,0,0,0,0,0,0,0,0,0],"sum_hessian":[4.4275314E1,1.5991643E1,2.8283672E1,2.5966208E0,1.3395022E1,1.3275083E1,1.5008589E1,4.075418E0,9.319605E0,3.8848503E0,1.1123739E1],"tree_param":{"num_deleted":"2","num_feature":"35","num_nodes":"11","size_leaf_vector":"0"}},{"base_weights":[7.419925E-2,-1.053954E0,7.553225E-1,-1.334941E0,2.3759049E-1,1.0110997E0,-2.3727591E-1,-6.8374175E-1,-1.4379395E0,1.3026383E0,3.0354905E-1,-1.1571178E0,1.1367023E0],"categories":[],"categories_nodes":[],"categories_segments":[],"categories_sizes":[],"default_left":[true,true,true,true,false,true,true,true,true,false,false,false,false],"id":46,"left_children":[1,3,5,-1,-1,9,11,-1,-1,-1,-1,-1,-1],"loss_changes":[4.0824924E1,7.5856495E0,8.63446E0,1.3027763E-1,0E0,5.066845E0,1.0900854E1,0E0,0E0,0E0,0E0,0E0,0E0],"parents":[2147483647,0,0,1,1,2,2,3,3,5,5,6,6],"right_children":[2,4,6,-1,-1,10,12,-1,-1,-1,-1,-1,-1],"split_conditions":[3.9607156E5,2.0956835E-1,3.2349483E1,-1.334941E-2,2.375905E-3,1.1385296E-1,7.1133897E-3,-6.8374174E-3,-1.4379395E-2,1.3026383E-2,3.0354904E-3,-1.1571178E-2,1.1367023E-2],"split_indices":[7,34,23,11,0,27,28,2147483647,2147483647,0,0,0,0],"split_type":[0,0,0,0,0,0,0,0,0,0,0,0,0],"sum_hessian":[5.109299E1,1.9028486E1,3.2064507E1,1.5600795E1,3.4276912E0,2.5480053E1,6.5844526E0,3.1737032E0,1.2427092E1,1.7449232E1,8.030822E0,4.038571E0,2.545882E0],"tree_param":{"num_deleted":"2","num_feature":"35","num_nodes":"13","size_leaf_vector":"0"}},{"base_weights":[-1.0615455E-1,-7.562916E-1,1.2169257E0,-1.204748E0,5.40256E-1,1.3295486E0,2.3448223E-1,-5.9910428E-2,-1.3098191E0,-1.1194001E0,1.1360116E0,1.4710853E0,2.5022843E-1],"categories":[],"categories_nodes":[],"categories_segments":[],"categories_sizes":[],"default_left":[true,true,true,true,true,true,false,false,false,false,false,false,false],"id":47,"left_children":[1,3,5,7,9,11,-1,-1,-1,-1,-1,-1,-1],"loss_changes":[4.8138596E1,2.241069E1,1.7318172E0,3.3035355E0,1.1463758E1,2.130476E0,0E0,0E0,0E0,0E0,0E0,0E0,0E0],"parents":[2147483647,0,0,1,1,2,2,3,3,4,4,5,5],"right_children":[2,4,6,8,10,12,-1,-1,-1,-1,-1,-1,-1],"split_conditions":[4.152836E3,1.7241964E-1,2.2093735E2,1.2686887E0,7.540706E4,5.5511665E-1,2.3448223E-3,-5.9910427E-4,-1.3098191E-2,-1.1194001E-2,1.1360115E-2,1.4710853E-2,2.5022842E-3],"split_indices":[0,34,16,20,2,22,0,0,0,0,0,0,0],"split_type":[0,0,0,0,0,0,0,0,0,0,0,0,0],"sum_hessian":[5.389322E1,3.6423683E1,1.7469534E1,2.7115604E1,9.308079E0,1.5355897E1,2.1136377E0,2.411414E0,2.4704191E1,2.2265093E0,7.0815697E0,1.325476E1,2.1011376E0],"tree_param":{"num_deleted":"0","num_feature":"35","num_nodes":"13","size_leaf_vector":"0"}},{"base_weights":[4.7824077E-2,-1.2064615E0,6.0260344E-1,-1.3149258E0,-3.4714076E-1,-1.8402582E-1,1.0832922E0,-5.2803725E-1,-1.4335192E0,1.2709221E0,-7.3197526E-1,1.5125538E0,-3.9541727E-1],"categories":[],"categories_nodes":[],"categories_segments":[],"categories_sizes":[],"default_left":[true,true,true,true,true,true,true,true,true,false,false,false,false],"id":48,"left_children":[1,-1,5,-1,-1,9,11,-1,-1,-1,-1,-1,-1],"loss_changes":[3.459877E1,9.6590996E-1,1.3212893E1,4.7408485E-1,0E0,1.2018806E1,1.4249981E1,0E0,0E0,0E0,0E0,0E0,0E0],"parents":[2147483647,0,0,1,1,2,2,3,3,5,5,6,6],"right_children":[2,-1,6,-1,-1,10,12,-1,-1,-1,-1,-1,-1],"split_conditions":[3.4330862E5,-1.2064615E-2,2.7601502E0,-1.3149258E-2,-3.4714076E-3,5.381118E2,2.2336128E3,-5.280372E-3,-1.4335192E-2,1.270922E-2,-7.3197526E-3,1.5125538E-2,-3.9541726E-3],"split_indices":[7,6,26,2147483647,2147483647,11,10,2147483647,2147483647,0,0,0,0],"split_type":[0,0,0,0,0,0,0,0,0,0,0,0,0],"sum_hessian":[4.7676678E1,1.4260602E1,3.3416077E1,1.2191577E1,2.0690255E0,1.2908674E1,2.0507402E1,2.310892E0,9.880685E0,3.170571E0,9.738104E0,1.5875842E1,4.6315603E0],"tree_param":{"num_deleted":"4","num_feature":"35","num_nodes":"13","size_leaf_vector":"0"}},{"base_weights":[2.2148822E-1,-8.486658E-1,8.264535E-1,-1.1803986E0,1.1545439E0,-2.2728135E-1,1.067882E0,-8.0895424E-2,-1.360722E0,-1.0115225E0,6.093208E-1,1.2336026E0,-5.346081E-1],"categories":[],"categories_nodes":[],"categories_segments":[],"categories_sizes":[],"default_left":[true,true,true,true,false,true,true,false,false,false,false,false,false],"id":49,"left_children":[1,3,5,7,-1,9,11,-1,-1,-1,-1,-1,-1],"loss_changes":[3.366663E1,1.3910907E1,8.647202E0,3.199852E0,0E0,5.1977034E0,7.8440037E0,0E0,0E0,0E0,0E0,0E0,0E0],"parents":[2147483647,0,0,1,1,2,2,3,3,5,5,6,6],"right_children":[2,4,6,8,-1,10,12,-1,-1,-1,-1,-1,-1],"split_conditions":[1.03744395E-1,4.1022227E3,2.51044E5,1.3684661E0,1.1545438E-2,6.138021E2,2.2152483E2,-8.0895424E-4,-1.3607219E-2,-1.0115225E-2,6.093208E-3,1.2336026E-2,-5.346081E-3],"split_indices":[34,0,4,20,0,13,16,0,0,0,0,0,0],"split_type":[0,0,0,0,0,0,0,0,0,0,0,0,0],"sum_hessian":[4.991897E1,1.7882631E1,3.2036335E1,1.5694379E1,2.1882534E0,5.9827414E0,2.6053593E1,2.4153905E0,1.3278988E1,2.980087E0,3.0026546E0,2.3820412E1,2.2331808E0],"tree_param":{"num_deleted":"0","num_feature":"35","num_nodes":"13","size_leaf_vector":"0"}},{"base_weights":[-1.2334575E-1,-8.382454E-1,1.0595803E0,-1.288506E0,5.951204E-1,1.2490124E0,-4.1206506E-1,-1.4232534E0,-8.784381E-2,-6.638681E-1,1.3441463E0,4.588774E-1,1.4798388E0],"categories":[],"categories_nodes":[],"categories_segments":[],"categories_sizes":[],"default_left":[true,true,true,true,true,true,false,false,false,false,false,false,false],"id":50,"left_children":[1,3,5,7,9,11,-1,-1,-1,-1,-1,-1,-1],"loss_changes":[4.6122013E1,2.2644209E1,6.2548275E0,4.099373E0,9.178623E0,2.6932888E0,0E0,0E0,0E0,0E0,0E0,0E0,0E0],"parents":[2147483647,0,0,1,1,2,2,3,3,4,4,5,5],"right_children":[2,4,6,8,10,12,-1,-1,-1,-1,-1,-1,-1],"split_conditions":[4.9375725E5,1.7214158E-1,3.9187793E3,1.295001E3,1.9233022E0,5.65692E5,-4.1206507E-3,-1.4232534E-2,-8.784381E-4,-6.638681E-3,1.3441462E-2,4.588774E-3,1.4798388E-2],"split_indices":[7,34,17,17,26,7,0,0,0,0,0,0,0],"split_type":[0,0,0,0,0,0,0,0,0,0,0,0,0],"sum_hessian":[5.248853E1,3.289803E1,1.9590498E1,2.5111015E1,7.7870164E0,1.7490395E1,2.1001039E0,2.2410543E1,2.700471E0,2.9471076E0,4.8399086E0,4.6299014E0,1.2860493E1],"tree_param":{"num_deleted":"0","num_feature":"35","num_nodes":"13","size_leaf_vector":"0"}},{"base_weights":[4.7677183E-3,-8.735418E-1,6.432994E-1,6.682519E-1,-1.1041312E0,-1.0636137E0,9.1024566E-1,-1.3600672E0,-1.15574315E-1,1.2633157E0,-2.4012674E-1],"categories":[],"categories_nodes":[],"categories_segments":[],"categories_sizes":[],"default_left":[true,true,true,false,true,false,true,false,false,false,false],"id":51,"left_children":[1,3,5,-1,7,-1,9,-1,-1,-1,-1],"loss_changes":[2.6926384E1,7.92414E0,1.363368E1,0E0,4.3869896E0,0E0,1.0285204E1,0E0,0E0,0E0,0E0],"parents":[2147483647,0,0,1,1,2,2,4,4,6,6],"right_children":[2,4,6,-1,8,-1,10,-1,-1,-1,-1],"split_conditions":[1.05839625E-1,1.4278044E0,7.2671625E4,6.6825184E-3,1.1392559E1,-1.0636136E-2,2.4272564E1,-1.3600673E-2,-1.1557431E-3,1.2633156E-2,-2.4012674E-3],"split_indices":[34,20,2,0,14,0,20,0,0,0,0],"split_type":[0,0,0,0,0,0,0,0,0,0,0],"sum_hessian":[4.60098E1,1.9213419E1,2.679638E1,2.2527575E0,1.696066E1,3.2203534E0,2.3576027E1,1.3174095E1,3.786566E0,1.7964285E1,5.611742E0],"tree_param":{"num_deleted":"0","num_feature":"35","num_nodes":"11","size_leaf_vector":"0"}},{"base_weights":[1.515503E-2,-8.2439315E-1,8.401315E-1,-1.2381321E0,1.3438982E0,-8.342224E-1,1.0581498E0,-2.4293645E-1,-1.3320155E0,-4.3046576E-1,1.2507895E0],"categories":[],"categories_nodes":[],"categories_segments":[],"categories_sizes":[],"default_left":[true,true,true,true,false,false,true,false,false,false,false],"id":52,"left_children":[1,3,5,7,-1,-1,9,-1,-1,-1,-1],"loss_changes":[3.4967228E1,2.411967E1,1.0174843E1,1.6890144E0,0E0,0E0,7.1235123E0,0E0,0E0,0E0,0E0],"parents":[2147483647,0,0,1,1,2,2,3,3,6,6],"right_children":[2,4,6,8,-1,-1,10,-1,-1,-1,-1],"split_conditions":[1.404525E-1,7.60573E2,2.9108777E4,1.6220233E-1,1.3438981E-2,-8.342223E-3,4.3495386E2,-2.4293645E-3,-1.33201545E-2,-4.3046577E-3,1.2507895E-2],"split_indices":[34,13,3,29,0,0,13,0,0,0,0],"split_type":[0,0,0,0,0,0,0,0,0,0,0],"sum_hessian":[4.8486362E1,2.40313E1,2.4455061E1,2.054082E1,3.4904804E0,2.4918182E0,2.1963243E1,2.0799797E0,1.846084E1,2.37511E0,1.9588133E1],"tree_param":{"num_deleted":"0","num_feature":"35","num_nodes":"11","size_leaf_vector":"0"}},{"base_weights":[5.493578E-3,-1.0856569E0,6.497617E-1,-1.3343343E0,-2.9501405E-1,-1.2924812E0,1.0187018E0,-5.594296E-1,-1.43568E0,-1.0720701E0,5.743539E-1,1.5163729E0,4.1247773E-1],"categories":[],"categories_nodes":[],"categories_segments":[],"categories_sizes":[],"default_left":[true,true,true,true,true,false,true,true,true,false,false,false,false],"id":53,"left_children":[1,3,5,-1,9,-1,11,-1,-1,-1,-1,-1,-1],"loss_changes":[3.673425E1,3.420885E0,2.4855713E1,3.3361435E-1,4.6189895E0,0E0,7.8718967E0,0E0,0E0,0E0,0E0,0E0,0E0],"parents":[2147483647,0,0,1,1,2,2,3,3,4,4,6,6],"right_children":[2,4,6,-1,10,-1,12,-1,-1,-1,-1,-1,-1],"split_conditions":[8.079388E4,1.2910259E0,2.8966444E5,-1.3343343E-2,3.731085E5,-1.2924812E-2,4.105103E4,-5.594296E-3,-1.43568E-2,-1.0720701E-2,5.7435385E-3,1.5163729E-2,4.1247774E-3],"split_indices":[2,25,7,8,7,0,8,2147483647,2147483647,0,0,0,0],"split_type":[0,0,0,0,0,0,0,0,0,0,0,0,0],"sum_hessian":[5.0250595E1,1.8401016E1,3.1849577E1,1.3475096E1,4.925921E0,4.6846333E0,2.7164944E1,2.3126025E0,1.1162493E1,2.4779375E0,2.4479833E0,1.4093631E1,1.3071313E1],"tree_param":{"num_deleted":"2","num_feature":"35","num_nodes":"13","size_leaf_vector":"0"}},{"base_weights":[1.4071241E-2,-1.1285845E0,7.042944E-1,1.7285182E-1,-1.3504429E0,1.436664E0,3.083706E-1,-1.4377177E0,-6.4797086E-1,-5.8059953E-2,1.2958738E0],"categories":[],"categories_nodes":[],"categories_segments":[],"categories_sizes":[],"default_left":[true,true,true,false,true,false,true,true,true,false,false],"id":54,"left_children":[1,3,5,-1,-1,-1,9,-1,-1,-1,-1],"loss_changes":[3.7823315E1,5.449251E0,8.22252E0,0E0,2.1554947E-2,0E0,7.5552626E0,0E0,0E0,0E0,0E0],"parents":[2147483647,0,0,1,1,2,2,4,4,6,6],"right_children":[2,4,6,-1,-1,-1,10,-1,-1,-1,-1],"split_conditions":[3.9801816E5,2.8826969E4,3.6320953E4,1.7285182E-3,-1.3504429E-2,1.436664E-2,8.105497E-2,-1.4377177E-2,-6.4797085E-3,-5.8059953E-4,1.2958737E-2],"split_indices":[7,8,8,0,33,0,33,2147483647,2147483647,0,0],"split_type":[0,0,0,0,0,0,0,0,0,0,0],"sum_hessian":[4.5949474E1,1.7064428E1,2.8885046E1,2.5175E0,1.4546928E1,9.213505E0,1.9671541E1,1.200836E1,2.5385683E0,1.5034083E1,4.6374574E0],"tree_param":{"num_deleted":"2","num_feature":"35","num_nodes":"11","size_leaf_vector":"0"}},{"base_weights":[4.5713093E-2,-9.1093457E-1,7.4430835E-1,5.373312E-1,-1.2409567E0,-9.325391E-1,9.882059E-1,-1.318824E0,-4.5831648E-1,1.460918E0,1.6433972E-1],"categories":[],"categories_nodes":[],"categories_segments":[],"categories_sizes":[],"default_left":[true,true,true,false,true,false,true,true,true,false,false],"id":55,"left_children":[1,3,5,-1,-1,-1,9,-1,-1,-1,-1],"loss_changes":[3.293603E1,1.0618504E1,1.2555711E1,0E0,4.4737816E-1,0E0,9.620892E0,0E0,0E0,0E0,0E0],"parents":[2147483647,0,0,1,1,2,2,4,4,6,6],"right_children":[2,4,6,-1,-1,-1,10,-1,-1,-1,-1],"split_conditions":[1.1315541E-1,6.306798E2,7.565094E4,5.373312E-3,-1.2409566E-2,-9.325391E-3,1.3721104E3,-1.318824E-2,-4.5831646E-3,1.4609179E-2,1.6433971E-3],"split_indices":[34,11,2,0,2,0,11,2147483647,2147483647,0,0],"split_type":[0,0,0,0,0,0,0,0,0,0,0],"sum_hessian":[4.726807E1,1.9821207E1,2.7446865E1,3.561925E0,1.6259281E1,3.1266935E0,2.4320171E1,1.4164878E1,2.0944037E0,1.4962086E1,9.358087E0],"tree_param":{"num_deleted":"2","num_feature":"35","num_nodes":"11","size_leaf_vector":"0"}},{"base_weights":[-6.0169563E-2,-6.1885816E-1,1.1262687E0,-8.745236E-1,9.619031E-1,1.4206399E0,1.6810937E-2,-2.913999E-1,-1.3495253E0,1.1688168E0,4.1372672E-1],"categories":[],"categories_nodes":[],"categories_segments":[],"categories_sizes":[],"default_left":[true,true,true,true,true,false,false,false,false,true,true],"id":56,"left_children":[1,3,5,7,-1,-1,-1,-1,-1,-1,-1],"loss_changes":[3.395618E1,1.4888501E1,5.3381424E0,8.03894E0,1.1930418E-1,0E0,0E0,0E0,0E0,0E0,0E0],"parents":[2147483647,0,0,1,1,2,2,3,3,4,4],"right_children":[2,4,6,8,-1,-1,-1,-1,-1,-1,-1],"split_conditions":[4.325116E3,8.806886E-2,1.24159125E5,3.455122E-1,9.619031E-3,1.4206398E-2,1.6810937E-4,-2.913999E-3,-1.3495253E-2,1.1688168E-2,4.137267E-3],"split_indices":[0,33,2,29,23,0,0,0,0,2147483647,2147483647],"split_type":[0,0,0,0,0,0,0,0,0,0,0],"sum_hessian":[4.9176064E1,3.3757973E1,1.5418092E1,2.9442793E1,4.3151784E0,1.1963381E1,3.4547112E0,1.3941428E1,1.5501365E1,2.3107686E0,2.0044098E0],"tree_param":{"num_deleted":"2","num_feature":"35","num_nodes":"11","size_leaf_vector":"0"}},{"base_weights":[-5.2350655E-2,-1.1289036E0,9.0238833E-1,-1.307828E0,5.615719E-2,1.9682413E-1,1.2226387E0,-5.486037E-1,-1.3722715E0,9.566747E-1,-8.6820424E-1,1.4615297E0,3.7858853E-1],"categories":[],"categories_nodes":[],"categories_segments":[],"categories_sizes":[],"default_left":[true,true,true,true,false,true,true,true,true,false,false,false,false],"id":57,"left_children":[1,3,5,-1,-1,9,11,-1,-1,-1,-1,-1,-1],"loss_changes":[5.225376E1,5.135504E0,5.85441E0,2.6402283E-1,0E0,8.610058E0,3.1489887E0,0E0,0E0,0E0,0E0,0E0,0E0],"parents":[2147483647,0,0,1,1,2,2,3,3,5,5,6,6],"right_children":[2,4,6,-1,-1,10,12,-1,-1,-1,-1,-1,-1],"split_conditions":[3.9401225E5,2.876377E4,4.818658E5,-1.3078279E-2,5.615719E-4,4.662513E5,4.7617273E4,-5.486037E-3,-1.3722715E-2,9.566747E-3,-8.682042E-3,1.4615297E-2,3.7858852E-3],"split_indices":[7,1,7,8,0,7,3,2147483647,2147483647,0,0,0,0],"split_type":[0,0,0,0,0,0,0,0,0,0,0,0,0],"sum_hessian":[4.8847927E1,2.2873549E1,2.5974379E1,1.9783045E1,3.0905037E0,8.613037E0,1.7361341E1,2.292112E0,1.7490932E1,5.0860815E0,3.526956E0,1.2961335E1,4.400006E0],"tree_param":{"num_deleted":"2","num_feature":"35","num_nodes":"13","size_leaf_vector":"0"}},{"base_weights":[-8.622851E-2,-8.75682E-1,7.8261036E-1,-1.2207198E0,1.9682072E-2,1.04869E0,-1.1649979E0,-1.3318318E0,-4.0148914E-1,1.2387105E0,-8.596707E-1,-1.3449574E-1,1.2144655E0],"categories":[],"categories_nodes":[],"categories_segments":[],"categories_sizes":[],"default_left":[true,true,true,true,true,true,false,true,true,false,false,false,false],"id":58,"left_children":[1,3,5,-1,9,11,-1,-1,-1,-1,-1,-1,-1],"loss_changes":[3.5865284E1,8.471661E0,1.4148802E1,1.2634182E0,1.027344E1,4.571291E0,0E0,0E0,0E0,0E0,0E0,0E0,0E0],"parents":[2147483647,0,0,1,1,2,2,3,3,4,4,5,5],"right_children":[2,4,6,-1,10,12,-1,-1,-1,-1,-1,-1,-1],"split_conditions":[1.4163516E-1,4.7701303E5,6.6443305E4,-1.2207198E-2,1.3011136E5,2.51044E5,-1.1649979E-2,-1.3318318E-2,-4.014891E-3,1.2387105E-2,-8.596707E-3,-1.3449573E-3,1.2144655E-2],"split_indices":[34,7,1,5,5,4,0,2147483647,2147483647,0,0,0,0],"split_type":[0,0,0,0,0,0,0,0,0,0,0,0,0],"sum_hessian":[5.0289635E1,2.6344418E1,2.3945217E1,1.8753994E1,7.5904236E0,2.1473137E1,2.4720805E0,1.5963201E1,2.7907927E0,3.0096068E0,4.5808167E0,2.662048E0,1.8811089E1],"tree_param":{"num_deleted":"2","num_feature":"35","num_nodes":"13","size_leaf_vector":"0"}},{"base_weights":[-6.279933E-2,-1.0438032E0,7.573151E-1,-1.4545621E-1,-1.3160008E0,-1.4863805E-1,1.4570694E0,6.90411E-1,-7.340425E-1,-1.430027E0,-3.4622103E-1,1.2628495E0,-7.9062283E-1],"categories":[],"categories_nodes":[],"categories_segments":[],"categories_sizes":[],"default_left":[true,true,true,true,true,true,false,false,false,true,true,false,false],"id":59,"left_children":[1,3,5,7,-1,11,-1,-1,-1,-1,-1,-1,-1],"loss_changes":[4.167687E1,5.569803E0,1.8131384E1,3.755349E0,1.4906483E0,1.2980134E1,0E0,0E0,0E0,0E0,0E0,0E0,0E0],"parents":[2147483647,0,0,1,1,2,2,3,3,4,4,5,5],"right_children":[2,4,6,8,-1,12,-1,-1,-1,-1,-1,-1,-1],"split_conditions":[9.791426E0,2.5483403E-1,6.596416E2,3.8366366E-2,-1.3160008E-2,4.3742234E4,1.45706935E-2,6.9041094E-3,-7.340425E-3,-1.430027E-2,-3.4622103E-3,1.2628494E-2,-7.906228E-3],"split_indices":[14,29,13,33,34,3,0,0,0,2147483647,2147483647,0,0],"split_type":[0,0,0,0,0,0,0,0,0,0,0,0,0],"sum_hessian":[4.9819862E1,2.2560595E1,2.7259268E1,5.6030283E0,1.6957565E1,1.2222591E1,1.5036677E1,2.2436965E0,3.3593318E0,1.4748818E1,2.2087476E0,3.518846E0,8.703745E0],"tree_param":{"num_deleted":"2","num_feature":"35","num_nodes":"13","size_leaf_vector":"0"}},{"base_weights":[1.0939193E-2,-8.0071396E-1,7.605612E-1,-1.0724883E0,1.1555682E0,9.7863317E-1,-5.631628E-1,-5.988209E-1,-1.3517401E0,-4.4389558E-1,1.2295247E0],"categories":[],"categories_nodes":[],"categories_segments":[],"categories_sizes":[],"default_left":[true,true,true,true,false,true,false,false,false,false,false],"id":60,"left_children":[1,3,5,7,-1,9,-1,-1,-1,-1,-1],"loss_changes":[3.1628588E1,1.4512789E1,8.350059E0,2.1586246E0,0E0,8.954716E0,0E0,0E0,0E0,0E0,0E0],"parents":[2147483647,0,0,1,1,2,2,3,3,5,5],"right_children":[2,4,6,8,-1,10,-1,-1,-1,-1,-1],"split_conditions":[1.404525E-1,9.5127E1,1.9429756E2,2.93961E-1,1.1555682E-2,8.170166E4,-5.631628E-3,-5.988209E-3,-1.3517401E-2,-4.438956E-3,1.2295247E-2],"split_indices":[34,16,16,29,0,2,0,0,0,0,0],"split_type":[0,0,0,0,0,0,0,0,0,0,0],"sum_hessian":[4.9982758E1,2.3965721E1,2.6017036E1,2.143909E1,2.5266297E0,2.2561007E1,3.4560308E0,9.117815E0,1.2321276E1,3.267179E0,1.9293827E1],"tree_param":{"num_deleted":"0","num_feature":"35","num_nodes":"11","size_leaf_vector":"0"}},{"base_weights":[1.1691086E-1,-6.521917E-1,8.872612E-1,-1.013252E0,3.8411352E-1,-3.4474757E-1,1.0868133E0,-2.0387423E-1,-1.3469502E0,-5.2863646E-1,1.2315164E0,1.4107298E0,4.607082E-1],"categories":[],"categories_nodes":[],"categories_segments":[],"categories_sizes":[],"default_left":[true,true,true,true,true,false,true,false,false,false,false,false,false],"id":61,"left_children":[1,3,5,7,9,-1,11,-1,-1,-1,-1,-1,-1],"loss_changes":[2.8964346E1,9.575346E0,6.3633995E0,4.7171783E0,6.1184373E0,0E0,3.650467E0,0E0,0E0,0E0,0E0,0E0,0E0],"parents":[2147483647,0,0,1,1,2,2,3,3,4,4,6,6],"right_children":[2,4,6,8,10,-1,12,-1,-1,-1,-1,-1,-1],"split_conditions":[8.756095E4,7.552106E2,5.794765E-2,6.249483E2,7.4154285E2,-3.4474756E-3,1.3572639E3,-2.0387422E-3,-1.3469501E-2,-5.2863644E-3,1.2315163E-2,1.4107297E-2,4.607082E-3],"split_indices":[2,13,34,11,10,0,11,0,0,0,0,0,0],"split_type":[0,0,0,0,0,0,0,0,0,0,0,0,0],"sum_hessian":[4.691007E1,2.3550798E1,2.3359268E1,1.7482088E1,6.0687103E0,3.1547348E0,2.0204535E1,5.573831E0,1.19082575E1,3.1028035E0,2.9659066E0,1.2489756E1,7.714778E0],"tree_param":{"num_deleted":"0","num_feature":"35","num_nodes":"13","size_leaf_vector":"0"}},{"base_weights":[-4.087909E-2,-8.307601E-1,9.942066E-1,-1.1855968E0,5.5180806E-1,1.4103581E0,2.9063103E-1,-3.054129E-1,-1.2976047E0,1.2144452E0,-5.0117445E-1,-1.1651586E0,9.2034006E-1],"categories":[],"categories_nodes":[],"categories_segments":[],"categories_sizes":[],"default_left":[true,true,true,true,true,false,true,false,false,false,false,false,false],"id":62,"left_children":[1,3,5,7,9,-1,11,-1,-1,-1,-1,-1,-1],"loss_changes":[3.8809063E1,1.3848221E1,5.6107655E0,1.7449417E0,4.9173193E0,0E0,9.232835E0,0E0,0E0,0E0,0E0,0E0,0E0],"parents":[2147483647,0,0,1,1,2,2,3,3,4,4,6,6],"right_children":[2,4,6,8,10,-1,12,-1,-1,-1,-1,-1,-1],"split_conditions":[9.0508875E4,4.980419E5,1.370935E3,2.099491E-1,1.0675518E1,1.410358E-2,4.159688E-1,-3.0541287E-3,-1.2976047E-2,1.2144452E-2,-5.0117443E-3,-1.1651586E-2,9.2034E-3],"split_indices":[2,7,11,9,15,0,19,0,0,0,0,0,0],"split_type":[0,0,0,0,0,0,0,0,0,0,0,0,0],"sum_hessian":[4.5457146E1,2.5894373E1,1.9562775E1,2.071924E1,5.1751328E0,1.1660974E1,7.9018006E0,2.7596881E0,1.795955E1,3.0821874E0,2.0929453E0,2.129172E0,5.772629E0],"tree_param":{"num_deleted":"0","num_feature":"35","num_nodes":"13","size_leaf_vector":"0"}},{"base_weights":[-2.156732E-3,-5.6054634E-1,1.0941855E0,-9.8487514E-1,6.078193E-1,1.4393891E0,2.8669572E-1,-1.1873132E0,2.4067672E-1,1.3097693E0,-6.704167E-1,-3.6148125E-1,1.0734941E0],"categories":[],"categories_nodes":[],"categories_segments":[],"categories_sizes":[],"default_left":[true,true,true,true,true,false,true,false,false,false,false,false,false],"id":63,"left_children":[1,3,5,7,9,-1,11,-1,-1,-1,-1,-1,-1],"loss_changes":[3.2272816E1,1.7913584E1,4.5463066E0,6.736828E0,9.781793E0,0E0,3.7419267E0,0E0,0E0,0E0,0E0,0E0,0E0],"parents":[2147483647,0,0,1,1,2,2,3,3,4,4,6,6],"right_children":[2,4,6,8,10,-1,12,-1,-1,-1,-1,-1,-1],"split_conditions":[7.766006E2,4.1380317E3,1.2100283E3,1.9971321E1,2.1861176E-1,1.4393891E-2,1.4260717E3,-1.1873132E-2,2.406767E-3,1.3097692E-2,-6.704167E-3,-3.6148124E-3,1.0734941E-2],"split_indices":[13,0,13,14,27,0,13,0,0,0,0,0,0],"split_type":[0,0,0,0,0,0,0,0,0,0,0,0,0],"sum_hessian":[5.071544E1,3.39253E1,1.6790138E1,2.5002062E1,8.923238E0,1.1213708E1,5.5764313E0,2.148444E1,3.5176232E0,5.744143E0,3.179095E0,3.353956E0,2.2224753E0],"tree_param":{"num_deleted":"0","num_feature":"35","num_nodes":"13","size_leaf_vector":"0"}},{"base_weights":[-9.438088E-2,-5.6528944E-1,1.1046057E0,-8.353615E-3,-1.3686385E0,1.410159E0,1.807801E-1,-5.4008985E-1,1.3217313E0,-4.9170455E-1,-1.4805179E0,-6.8431634E-1,9.9580353E-1],"categories":[],"categories_nodes":[],"categories_segments":[],"categories_sizes":[],"default_left":[true,true,true,true,true,false,true,false,false,true,true,false,false],"id":64,"left_children":[1,3,5,7,-1,-1,11,-1,-1,-1,-1,-1,-1],"loss_changes":[3.1323105E1,1.7750923E1,4.168686E0,1.8007612E1,8.6613464E-1,0E0,4.2364254E0,0E0,0E0,0E0,0E0,0E0,0E0],"parents":[2147483647,0,0,1,1,2,2,3,3,4,4,6,6],"right_children":[2,4,6,8,-1,-1,12,-1,-1,-1,-1,-1,-1],"split_conditions":[3.440678E-1,5.475497E-1,1.2745053E2,2.1784222E0,-1.3686385E-2,1.410159E-2,2.6988834E1,-5.4008984E-3,1.3217313E-2,-4.9170456E-3,-1.4805178E-2,-6.843163E-3,9.958035E-3],"split_indices":[34,29,16,25,11,0,23,0,0,2147483647,2147483647,0,0],"split_type":[0,0,0,0,0,0,0,0,0,0,0,0,0],"sum_hessian":[5.3371185E1,3.8700054E1,1.4671131E1,2.3451965E1,1.5248089E1,1.0629134E1,4.041997E0,1.7178396E1,6.2735696E0,2.3356595E0,1.291243E1,2.0385628E0,2.0034344E0],"tree_param":{"num_deleted":"2","num_feature":"35","num_nodes":"13","size_leaf_vector":"0"}},{"base_weights":[-1.0713736E-1,-6.677708E-1,9.557792E-1,-1.1111865E0,1.3214399E-1,1.3895897E0,-3.6190426E-1,-1.3484065E-1,-1.2576711E0,1.2894007E0,-6.359427E-1],"categories":[],"categories_nodes":[],"categories_segments":[],"categories_sizes":[],"default_left":[true,true,true,true,true,false,false,false,false,false,false],"id":65,"left_children":[1,3,5,7,9,-1,-1,-1,-1,-1,-1],"loss_changes":[2.885226E1,1.1350134E1,1.0083697E1,2.7519379E0,1.1627186E1,0E0,0E0,0E0,0E0,0E0,0E0],"parents":[2147483647,0,0,1,1,2,2,3,3,4,4],"right_children":[2,4,6,8,10,-1,-1,-1,-1,-1,-1],"split_conditions":[4.325116E3,4.581883E-1,2.1004992E0,7.366705E0,1.3015199E3,1.3895896E-2,-3.6190425E-3,-1.3484065E-3,-1.257671E-2,1.2894006E-2,-6.359427E-3],"split_indices":[0,19,19,15,11,0,0,0,0,0,0],"split_type":[0,0,0,0,0,0,0,0,0,0,0],"sum_hessian":[4.6346382E1,3.0585743E1,1.576064E1,1.9427431E1,1.1158313E1,1.1815986E1,3.9446537E0,2.7850556E0,1.6642376E1,4.1806765E0,6.9776363E0],"tree_param":{"num_deleted":"0","num_feature":"35","num_nodes":"11","size_leaf_vector":"0"}},{"base_weights":[1.3967218E-2,-9.604096E-1,7.256524E-1,-1.322978E0,2.4810452E-2,-2.8569224E-1,1.1661862E0,6.2416434E-1,-4.8279408E-1,-7.513552E-1,5.561888E-1,1.4035677E0,4.338774E-1],"categories":[],"categories_nodes":[],"categories_segments":[],"categories_sizes":[],"default_left":[true,true,true,false,true,true,true,false,false,false,false,false,false],"id":66,"left_children":[1,3,5,-1,7,9,11,-1,-1,-1,-1,-1,-1],"loss_changes":[3.3028286E1,7.216423E0,1.2591369E1,0E0,2.2458484E0,4.0055876E0,2.7568703E0,0E0,0E0,0E0,0E0,0E0,0E0],"parents":[2147483647,0,0,1,1,2,2,4,4,5,5,6,6],"right_children":[2,4,6,-1,8,10,12,-1,-1,-1,-1,-1,-1],"split_conditions":[1.03744395E-1,4.0240275E5,8.5125125E4,-1.322978E-2,1.2490867E4,5.0513362E5,4.8352383E4,6.2416433E-3,-4.827941E-3,-7.5135515E-3,5.561888E-3,1.4035677E-2,4.338774E-3],"split_indices":[34,7,2,0,6,7,8,0,0,0,0,0,0],"split_type":[0,0,0,0,0,0,0,0,0,0,0,0,0],"sum_hessian":[4.562396E1,1.9110312E1,2.6513647E1,1.3718847E1,5.3914647E0,8.151509E0,1.8362139E1,2.367001E0,3.0244634E0,5.3177004E0,2.833809E0,1.3174823E1,5.1873155E0],"tree_param":{"num_deleted":"0","num_feature":"35","num_nodes":"13","size_leaf_vector":"0"}},{"base_weights":[-4.2733073E-2,-9.696777E-1,4.9551758E-1,-1.1840408E0,4.222148E-1,7.419518E-1,-5.6856257E-1,9.83072E-2,-1.3631746E0,1.0096492E0,-1.0377175E0,-1.4222234E0,1.0145121E0],"categories":[],"categories_nodes":[],"categories_segments":[],"categories_sizes":[],"default_left":[true,true,true,true,false,true,true,false,false,false,false,false,false],"id":67,"left_children":[1,3,5,7,-1,9,11,-1,-1,-1,-1,-1,-1],"loss_changes":[2.6958736E1,6.41778E0,9.39948E0,4.1424465E0,0E0,1.4497907E1,1.0908232E1,0E0,0E0,0E0,0E0,0E0,0E0],"parents":[2147483647,0,0,1,1,2,2,3,3,5,5,6,6],"right_children":[2,4,6,8,-1,10,12,-1,-1,-1,-1,-1,-1],"split_conditions":[3.9801816E5,4.901762E0,2.1660406E1,4.879413E2,4.222148E-3,4.2505E3,8.265674E-2,9.83072E-4,-1.3631745E-2,1.0096491E-2,-1.0377174E-2,-1.42222345E-2,1.014512E-2],"split_indices":[7,20,20,11,0,17,33,0,0,0,0,0,0],"split_type":[0,0,0,0,0,0,0,0,0,0,0,0,0],"sum_hessian":[5.2070213E1,1.8833939E1,3.3236275E1,1.6449854E1,2.384085E0,2.7232197E1,6.0040755E0,2.0715625E0,1.4378292E1,2.4047636E1,3.1845617E0,3.9666803E0,2.0373952E0],"tree_param":{"num_deleted":"0","num_feature":"35","num_nodes":"13","size_leaf_vector":"0"}},{"base_weights":[-1.5343496E-1,-7.4113685E-1,9.9037606E-1,-1.2107372E0,1.3534261E-1,-5.808331E-1,1.2382014E0,1.1495796E-1,-1.358816E0,8.96354E-1,-7.0280343E-1,1.3876748E0,1.270446E-1],"categories":[],"categories_nodes":[],"categories_segments":[],"categories_sizes":[],"default_left":[true,true,true,true,true,false,true,false,false,false,false,false,false],"id":68,"left_children":[1,3,5,7,9,-1,11,-1,-1,-1,-1,-1,-1],"loss_changes":[3.6225357E1,1.4754503E1,7.863718E0,4.7071304E0,9.091772E0,0E0,2.5089798E0,0E0,0E0,0E0,0E0,0E0,0E0],"parents":[2147483647,0,0,1,1,2,2,3,3,4,4,6,6],"right_children":[2,4,6,8,10,-1,12,-1,-1,-1,-1,-1,-1],"split_conditions":[4.1886973E3,8.587096E4,4.4409265E2,4.6127264E2,1.3545974E3,-5.8083306E-3,6.7085106E5,1.1495795E-3,-1.358816E-2,8.96354E-3,-7.028034E-3,1.3876747E-2,1.270446E-3],"split_indices":[0,2,13,11,11,0,4,0,0,0,0,0,0],"split_type":[0,0,0,0,0,0,0,0,0,0,0,0,0],"sum_hessian":[5.1797234E1,3.444902E1,1.7348215E1,2.2182638E1,1.2266381E1,2.1804535E0,1.5167763E1,2.2512946E0,1.9931343E1,6.392623E0,5.873758E0,1.3149966E1,2.017796E0],"tree_param":{"num_deleted":"0","num_feature":"35","num_nodes":"13","size_leaf_vector":"0"}},{"base_weights":[-1.7007624E-1,-7.770506E-1,1.1108794E0,-1.0353E0,5.85317E-1,1.3831533E0,3.3780327E-1,-5.37696E-1,-1.2823044E0,1.181131E0,-4.6875212E-1,-4.635664E-1,1.0496652E0],"categories":[],"categories_nodes":[],"categories_segments":[],"categories_sizes":[],"default_left":[true,true,true,true,true,false,true,false,false,false,false,false,false],"id":69,"left_children":[1,3,5,7,9,-1,11,-1,-1,-1,-1,-1,-1],"loss_changes":[4.177505E1,1.3374069E1,3.1802788E0,3.1045837E0,4.586737E0,0E0,3.8161876E0,0E0,0E0,0E0,0E0,0E0,0E0],"parents":[2147483647,0,0,1,1,2,2,3,3,4,4,6,6],"right_children":[2,4,6,8,10,-1,12,-1,-1,-1,-1,-1,-1],"split_conditions":[5.0287706E5,9.919191E4,4.7836484E4,3.455122E-1,1.9583193E4,1.3831533E-2,3.8824868E-3,-5.37696E-3,-1.2823043E-2,1.18113095E-2,-4.687521E-3,-4.6356637E-3,1.0496652E-2],"split_indices":[7,2,3,29,6,0,30,0,0,0,0,0,0],"split_type":[0,0,0,0,0,0,0,0,0,0,0,0,0],"sum_hessian":[5.1619236E1,3.529043E1,1.6328808E1,2.9868626E1,5.421803E0,1.14921665E1,4.8366427E0,1.0961978E1,1.8906647E1,3.3868423E0,2.0349607E0,2.4393606E0,2.3972821E0],"tree_param":{"num_deleted":"0","num_feature":"35","num_nodes":"13","size_leaf_vector":"0"}},{"base_weights":[-1.809078E-1,-7.3840064E-1,6.348454E-1,-9.7420424E-1,5.0648165E-1,1.3638525E0,8.797991E-3,4.4190663E-1,-1.1351944E0,1.1936653E0,-4.450136E-1,-5.537964E-1,1.1744682E0],"categories":[],"categories_nodes":[],"categories_segments":[],"categories_sizes":[],"default_left":[true,true,true,true,true,false,true,false,false,false,false,false,false],"id":70,"left_children":[1,3,5,7,9,-1,11,-1,-1,-1,-1,-1,-1],"loss_changes":[2.3792152E1,9.572109E0,9.735588E0,6.5076103E0,4.181807E0,0E0,8.845838E0,0E0,0E0,0E0,0E0,0E0,0E0],"parents":[2147483647,0,0,1,1,2,2,3,3,4,4,6,6],"right_children":[2,4,6,8,10,-1,12,-1,-1,-1,-1,-1,-1],"split_conditions":[2.4970108E-1,1.8525795E1,9.7923816E2,1.3236105E0,5.055628E4,1.3638524E-2,4.463687E0,4.419066E-3,-1.1351944E-2,1.19366525E-2,-4.450136E-3,-5.537964E-3,1.1744682E-2],"split_indices":[34,14,11,20,3,0,12,0,0,0,0,0,0],"split_type":[0,0,0,0,0,0,0,0,0,0,0,0,0],"sum_hessian":[5.0285366E1,2.9927486E1,2.0357882E1,2.534425E1,4.5832353E0,8.86104E0,1.1496841E1,2.4090137E0,2.2935236E1,2.5134616E0,2.0697737E0,8.108364E0,3.388477E0],"tree_param":{"num_deleted":"0","num_feature":"35","num_nodes":"13","size_leaf_vector":"0"}},{"base_weights":[-9.4843306E-2,-1.0178422E0,7.210987E-1,6.656962E-1,-1.2399664E0,-8.707494E-1,9.0134186E-1,-1.3712564E0,-1.468438E-1,-3.0211154E-1,1.0876642E0],"categories":[],"categories_nodes":[],"categories_segments":[],"categories_sizes":[],"default_left":[true,true,true,false,true,false,true,false,false,false,false],"id":71,"left_children":[1,3,5,-1,7,-1,9,-1,-1,-1,-1],"loss_changes":[3.7328266E1,9.506529E0,8.352748E0,0E0,2.7920647E0,0E0,5.7515984E0,0E0,0E0,0E0,0E0],"parents":[2147483647,0,0,1,1,2,2,4,4,6,6],"right_children":[2,4,6,-1,8,-1,10,-1,-1,-1,-1],"split_conditions":[9.035058E0,1.4785044E0,8.108004E-1,6.656962E-3,6.440059E-1,-8.707494E-3,7.579868E-2,-1.3712564E-2,-1.4684381E-3,-3.0211152E-3,1.0876643E-2],"split_indices":[14,20,25,0,19,0,34,0,0,0,0],"split_type":[0,0,0,0,0,0,0,0,0,0,0],"sum_hessian":[4.7590675E1,2.2214287E1,2.5376389E1,2.3565333E0,1.9857754E1,2.1914299E0,2.318496E1,1.750131E1,2.3564436E0,3.0250118E0,2.0159946E1],"tree_param":{"num_deleted":"0","num_feature":"35","num_nodes":"11","size_leaf_vector":"0"}},{"base_weights":[-1.1258622E-1,-7.768355E-1,9.078599E-1,-1.2509506E0,3.1051508E-1,1.1793708E0,-8.970052E-1,-1.3790632E0,-8.0170035E-2,-5.776018E-1,1.2576395E0,1.3208263E-1,1.2956156E0],"categories":[],"categories_nodes":[],"categories_segments":[],"categories_sizes":[],"default_left":[true,true,true,true,true,true,false,false,false,false,false,false,false],"id":72,"left_children":[1,3,5,7,9,11,-1,-1,-1,-1,-1,-1,-1],"loss_changes":[3.815698E1,1.7919569E1,1.1959461E1,3.4711685E0,1.0085603E1,2.2356224E0,0E0,0E0,0E0,0E0,0E0,0E0,0E0],"parents":[2147483647,0,0,1,1,2,2,3,3,4,4,5,5],"right_children":[2,4,6,8,10,12,-1,-1,-1,-1,-1,-1,-1],"split_conditions":[4.787647E5,1.975247E-1,4.4639707E3,3.6696855E3,6.2937244E2,1.730861E-1,-8.970052E-3,-1.3790633E-2,-8.0170034E-4,-5.776018E-3,1.2576395E-2,1.3208262E-3,1.2956155E-2],"split_indices":[7,34,17,0,13,9,0,0,0,0,0,0,0],"split_type":[0,0,0,0,0,0,0,0,0,0,0,0,0],"sum_hessian":[5.4252327E1,3.3006077E1,2.124625E1,2.2879517E1,1.0126562E1,1.8769293E1,2.4769557E0,2.0462507E1,2.4170094E0,5.4274263E0,4.699136E0,2.0886054E0,1.6680689E1],"tree_param":{"num_deleted":"0","num_feature":"35","num_nodes":"13","size_leaf_vector":"0"}},{"base_weights":[7.790353E-2,-5.3847253E-1,1.0189961E0,-7.375546E-1,1.1015081E0,1.2461995E0,-2.7715556E-2,-8.1884064E-2,-1.2942134E0,1.3863722E0,2.5893185E-1],"categories":[],"categories_nodes":[],"categories_segments":[],"categories_sizes":[],"default_left":[true,true,true,true,false,true,false,false,false,false,false],"id":73,"left_children":[1,3,5,7,-1,9,-1,-1,-1,-1,-1],"loss_changes":[2.7171267E1,1.008035E1,4.436325E0,9.351712E0,0E0,1.7486477E0,0E0,0E0,0E0,0E0,0E0],"parents":[2147483647,0,0,1,1,2,2,3,3,5,5],"right_children":[2,4,6,8,-1,10,-1,-1,-1,-1,-1],"split_conditions":[1.1216492E5,9.8313205E-2,1.0331242E0,4.0362388E-1,1.1015081E-2,1.6661028E1,-2.7715554E-4,-8.1884064E-4,-1.29421335E-2,1.3863722E-2,2.5893184E-3],"split_indices":[5,33,29,29,0,15,0,0,0,0,0],"split_type":[0,0,0,0,0,0,0,0,0,0,0],"sum_hessian":[4.489568E1,2.7386496E1,1.7509182E1,2.4912554E1,2.4739416E0,1.4229816E1,3.2793658E0,1.1965672E1,1.2946883E1,1.2106657E1,2.1231594E0],"tree_param":{"num_deleted":"0","num_feature":"35","num_nodes":"11","size_leaf_vector":"0"}},{"base_weights":[-7.994644E-2,-7.12843E-1,9.4342065E-1,-1.0251236E0,6.009842E-1,-4.0525806E-1,1.1248071E0,-1.2699507E0,2.6723453E-1,1.2311362E0,-6.354452E-1,1.3738016E0,2.4424304E-1],"categories":[],"categories_nodes":[],"categories_segments":[],"categories_sizes":[],"default_left":[true,true,true,true,true,false,true,false,false,false,false,false,false],"id":74,"left_children":[1,3,5,7,9,-1,11,-1,-1,-1,-1,-1,-1],"loss_changes":[3.537851E1,1.443372E1,5.570196E0,9.065895E0,6.3126917E0,0E0,3.7629547E0,0E0,0E0,0E0,0E0,0E0,0E0],"parents":[2147483647,0,0,1,1,2,2,3,3,4,4,6,6],"right_children":[2,4,6,8,10,-1,12,-1,-1,-1,-1,-1,-1],"split_conditions":[4.9132575E5,2.3259785E0,1.10881835E-1,4.990999E0,1.4882952E-2,-4.0525803E-3,6.762673E-1,-1.2699507E-2,2.6723454E-3,1.2311362E-2,-6.3544516E-3,1.3738016E-2,2.4424302E-3],"split_indices":[7,25,19,20,30,0,29,0,0,0,0,0,0],"split_type":[0,0,0,0,0,0,0,0,0,0,0,0,0],"sum_hessian":[5.2584656E1,3.267833E1,1.9906324E1,2.6580269E1,6.0980606E0,2.2135441E0,1.769278E1,2.236141E1,4.218858E0,4.0422106E0,2.0558503E0,1.3356005E1,4.3367753E0],"tree_param":{"num_deleted":"0","num_feature":"35","num_nodes":"13","size_leaf_vector":"0"}},{"base_weights":[7.3424324E-2,-4.733317E-1,1.2058299E0,-8.44737E-1,2.3493652E-1,1.3550073E0,1.562087E-1,-1.1343267E0,1.2888314E-1,1.2895318E0,-6.39106E-1],"categories":[],"categories_nodes":[],"categories_segments":[],"categories_sizes":[],"default_left":[true,true,true,true,true,false,false,false,false,false,false],"id":75,"left_children":[1,3,5,7,9,-1,-1,-1,-1,-1,-1],"loss_changes":[3.0377125E1,8.927578E0,2.2869034E0,6.3452053E0,1.206734E1,0E0,0E0,0E0,0E0,0E0,0E0],"parents":[2147483647,0,0,1,1,2,2,3,3,4,4],"right_children":[2,4,6,8,10,-1,-1,-1,-1,-1,-1],"split_conditions":[4.325116E3,9.1319125E4,2.204261E1,4.9132575E5,1.3720605E3,1.3550073E-2,1.5620869E-3,-1.1343267E-2,1.2888314E-3,1.2895318E-2,-6.3910596E-3],"split_indices":[0,2,32,7,11,0,0,0,0,0,0],"split_type":[0,0,0,0,0,0,0,0,0,0,0],"sum_hessian":[4.7140823E1,3.218368E1,1.495714E1,2.0986168E1,1.1197514E1,1.2841143E1,2.115997E0,1.6047888E1,4.9382815E0,4.8591876E0,6.3383255E0],"tree_param":{"num_deleted":"0","num_feature":"35","num_nodes":"11","size_leaf_vector":"0"}},{"base_weights":[-2.0284716E-3,-5.4621947E-1,9.4521517E-1,-9.303206E-1,5.244282E-1,1.3647721E0,-7.309627E-2,2.4479423E-1,-1.0791591E0,1.2783884E0,-9.068333E-1,4.7059396E-1,-7.4462914E-1],"categories":[],"categories_nodes":[],"categories_segments":[],"categories_sizes":[],"default_left":[true,true,true,true,true,false,true,false,false,false,false,false,false],"id":76,"left_children":[1,3,5,7,9,-1,11,-1,-1,-1,-1,-1,-1],"loss_changes":[2.3965496E1,1.2629831E1,7.347658E0,4.1278057E0,1.0261808E1,0E0,2.5042667E0,0E0,0E0,0E0,0E0,0E0,0E0],"parents":[2147483647,0,0,1,1,2,2,3,3,4,4,6,6],"right_children":[2,4,6,8,10,-1,12,-1,-1,-1,-1,-1,-1],"split_conditions":[5.0932416E5,2.97805E4,1.6309879E4,2.5737059E4,1.1215616E0,1.364772E-2,1.1724571E1,2.4479423E-3,-1.0791591E-2,1.2783883E-2,-9.068333E-3,4.7059394E-3,-7.4462914E-3],"split_indices":[7,1,6,8,29,0,20,0,0,0,0,0,0],"split_type":[0,0,0,0,0,0,0,0,0,0,0,0,0],"sum_hessian":[4.44899E1,2.852542E1,1.5964481E1,2.109024E1,7.4351797E0,1.1065236E1,4.899245E0,2.2984827E0,1.8791758E1,4.9398007E0,2.4953792E0,2.8726764E0,2.0265682E0],"tree_param":{"num_deleted":"0","num_feature":"35","num_nodes":"13","size_leaf_vector":"0"}},{"base_weights":[-9.627844E-2,-7.753821E-1,8.623953E-1,5.321983E-1,-1.0908473E0,6.0359605E-2,1.325901E0,-6.2573713E-1,1.2390171E0,-1.1917785E0,-1.117386E-1,7.980788E-1,-8.485421E-1],"categories":[],"categories_nodes":[],"categories_segments":[],"categories_sizes":[],"default_left":[true,true,true,true,true,true,false,false,false,false,false,false,false],"id":77,"left_children":[1,3,5,7,9,11,-1,-1,-1,-1,-1,-1,-1],"loss_changes":[3.2834484E1,1.272728E1,7.7118025E0,6.0097666E0,2.2436466E0,6.526974E0,0E0,0E0,0E0,0E0,0E0,0E0,0E0],"parents":[2147483647,0,0,1,1,2,2,3,3,4,4,5,5],"right_children":[2,4,6,8,10,12,-1,-1,-1,-1,-1,-1,-1],"split_conditions":[9.193757E4,2.386664E-1,1.9477297E-1,2.8370537E3,6.672683E-1,3.918175E-1,1.325901E-2,-6.257371E-3,1.2390171E-2,-1.1917785E-2,-1.1173859E-3,7.980787E-3,-8.485421E-3],"split_indices":[2,29,34,0,21,29,0,0,0,0,0,0,0],"split_type":[0,0,0,0,0,0,0,0,0,0,0,0,0],"sum_hessian":[4.840688E1,2.8446903E1,1.9959976E1,5.3955817E0,2.3051321E1,7.7243056E0,1.2235669E1,2.0886292E0,3.3069522E0,2.0700235E1,2.3510866E0,4.330965E0,3.3933406E0],"tree_param":{"num_deleted":"0","num_feature":"35","num_nodes":"13","size_leaf_vector":"0"}},{"base_weights":[6.853086E-2,-3.3026668E-1,1.1737118E0,-8.803817E-1,6.6428065E-1,1.6951334E-1,1.3460218E0,6.1767507E-1,-1.0961847E0,1.0823773E0,-2.8593248E-1],"categories":[],"categories_nodes":[],"categories_segments":[],"categories_sizes":[],"default_left":[true,true,true,true,true,false,false,false,false,false,false],"id":78,"left_children":[1,3,5,7,9,-1,-1,-1,-1,-1,-1],"loss_changes":[2.1130644E1,1.9933336E1,1.9691982E0,8.1772785E0,5.5395617E0,0E0,0E0,0E0,0E0,0E0,0E0],"parents":[2147483647,0,0,1,1,2,2,3,3,4,4],"right_children":[2,4,6,8,10,-1,-1,-1,-1,-1,-1],"split_conditions":[8.025137E1,4.731518E0,7.803297E2,4.5462433E2,5.3547E0,1.6951334E-3,1.3460217E-2,6.1767506E-3,-1.0961847E-2,1.0823773E-2,-2.8593247E-3],"split_indices":[16,20,10,11,12,0,0,0,0,0,0],"split_type":[0,0,0,0,0,0,0,0,0,0,0],"sum_hessian":[4.6063675E1,3.4364594E1,1.1699082E1,2.219992E1,1.2164674E1,2.0039744E0,9.695107E0,2.5608504E0,1.963907E1,8.351083E0,3.813591E0],"tree_param":{"num_deleted":"0","num_feature":"35","num_nodes":"11","size_leaf_vector":"0"}},{"base_weights":[-1.658664E-1,-6.607957E-1,8.914013E-1,-8.829759E-1,7.3709416E-1,1.3378408E0,-9.1595834E-1,-1.9745094E-1,-1.198605E0,1.0664606E0,1.3047814E-1],"categories":[],"categories_nodes":[],"categories_segments":[],"categories_sizes":[],"default_left":[true,true,true,true,true,false,false,false,false,true,true],"id":79,"left_children":[1,3,5,7,-1,-1,-1,-1,-1,-1,-1],"loss_changes":[2.6731525E1,1.1398233E1,1.4422434E1,6.3222523E0,9.17923E-1,0E0,0E0,0E0,0E0,0E0,0E0],"parents":[2147483647,0,0,1,1,2,2,3,3,4,4],"right_children":[2,4,6,8,-1,-1,-1,-1,-1,-1,-1],"split_conditions":[4.1775215E3,1.2571189E-2,6.6443305E4,6.301686E2,7.3709413E-3,1.3378408E-2,-9.159584E-3,-1.9745093E-3,-1.1986049E-2,1.0664606E-2,1.3047814E-3],"split_indices":[0,28,1,11,17,0,0,0,0,2147483647,2147483647],"split_type":[0,0,0,0,0,0,0,0,0,0,0],"sum_hessian":[4.895959E1,3.3603897E1,1.5355694E1,2.9313213E1,4.2906823E0,1.2522314E1,2.83338E0,9.753925E0,1.9559288E1,2.2895217E0,2.0011609E0],"tree_param":{"num_deleted":"2","num_feature":"35","num_nodes":"11","size_leaf_vector":"0"}},{"base_weights":[-3.1791613E-2,-6.182606E-1,1.0387856E0,-9.063752E-1,1.2171513E0,1.3288027E0,-3.1057674E-1,-1.2261825E0,-1.7954017E-1],"categories":[],"categories_nodes":[],"categories_segments":[],"categories_sizes":[],"default_left":[true,true,true,true,false,false,false,false,false],"id":80,"left_children":[1,3,5,7,-1,-1,-1,-1,-1],"loss_changes":[2.8825886E1,1.6770847E1,6.775936E0,5.8656635E0,0E0,0E0,0E0,0E0,0E0],"parents":[2147483647,0,0,1,1,2,2,3,3],"right_children":[2,4,6,8,-1,-1,-1,-1,-1],"split_conditions":[4.1693203E3,4.1265237E-1,5.4848737E-1,4.5049147E5,1.21715125E-2,1.3288027E-2,-3.1057673E-3,-1.2261825E-2,-1.7954017E-3],"split_indices":[0,9,9,7,0,0,0,0,0],"split_type":[0,0,0,0,0,0,0,0,0],"sum_hessian":[4.3888397E1,2.8628191E1,1.5260207E1,2.5181488E1,3.4467018E0,1.2573116E1,2.687091E0,1.7010054E1,8.171435E0],"tree_param":{"num_deleted":"0","num_feature":"35","num_nodes":"9","size_leaf_vector":"0"}},{"base_weights":[-6.785505E-2,-1.0636963E0,3.5613534E-1,-1.2133405E0,-1.6404486E-1,-2.6956132E-1,8.257164E-1,1.1981497E0,-7.7930707E-1,-3.3479962E-1,1.3472794E0],"categories":[],"categories_nodes":[],"categories_segments":[],"categories_sizes":[],"default_left":[true,true,true,false,false,true,true,false,false,false,false],"id":81,"left_children":[1,3,5,-1,-1,7,9,-1,-1,-1,-1],"loss_changes":[2.0349424E1,1.7362366E0,1.0189738E1,0E0,0E0,1.2378969E1,1.2329941E1,0E0,0E0,0E0,0E0],"parents":[2147483647,0,0,1,1,2,2,5,5,6,6],"right_children":[2,4,6,-1,-1,8,10,-1,-1,-1,-1],"split_conditions":[3.4487612E5,4.0739268E-1,2.8845768E0,-1.2133405E-2,-1.6404486E-3,5.3185675E2,2.9716973E0,1.1981497E-2,-7.7930703E-3,-3.3479962E-3,1.3472794E-2],"split_indices":[7,9,26,0,0,11,20,0,0,0,0],"split_type":[0,0,0,0,0,0,0,0,0,0,0],"sum_hessian":[4.6298252E1,1.3375042E1,3.292321E1,1.1168622E1,2.20642E0,1.4297867E1,1.8625343E1,3.337556E0,1.0960311E1,5.8862004E0,1.2739142E1],"tree_param":{"num_deleted":"0","num_feature":"35","num_nodes":"11","size_leaf_vector":"0"}},{"base_weights":[-9.0533085E-2,-7.105278E-1,9.215895E-1,-1.0913688E0,6.84975E-1,1.157805E0,-5.605208E-1,-3.1579733E-2,-1.2337588E0,1.2211356E0,-4.826384E-1,-1.6442524E-1,1.3481522E0],"categories":[],"categories_nodes":[],"categories_segments":[],"categories_sizes":[],"default_left":[true,true,true,true,true,true,false,false,false,false,false,false,false],"id":82,"left_children":[1,3,5,7,9,11,-1,-1,-1,-1,-1,-1,-1],"loss_changes":[3.1452288E1,1.7222876E1,7.32847E0,3.6942654E0,5.1347256E0,4.4455204E0,0E0,0E0,0E0,0E0,0E0,0E0,0E0],"parents":[2147483647,0,0,1,1,2,2,3,3,4,4,5,5],"right_children":[2,4,6,8,10,12,-1,-1,-1,-1,-1,-1,-1],"split_conditions":[9.200805E4,5.0352172E5,5.8239188E4,2.8783088E4,1.9314847E3,3.7378223E2,-5.605208E-3,-3.157973E-4,-1.2337588E-2,1.2211356E-2,-4.8263837E-3,-1.6442523E-3,1.3481521E-2],"split_indices":[2,7,8,8,17,17,0,0,0,0,0,0,0],"split_type":[0,0,0,0,0,0,0,0,0,0,0,0,0],"sum_hessian":[4.8078804E1,2.999983E1,1.8078976E1,2.37392E1,6.260629E0,1.5782422E1,2.2965536E0,2.956462E0,2.0782738E1,4.2590585E0,2.001571E0,2.003245E0,1.3779178E1],"tree_param":{"num_deleted":"0","num_feature":"35","num_nodes":"13","size_leaf_vector":"0"}},{"base_weights":[-1.714529E-1,-8.6078E-1,4.14431E-1,-1.1765722E0,4.6135634E-1,7.8440934E-1,-4.0511483E-1,-3.7346044E-1,-1.2752314E0,-3.379907E-1,1.0674425E0,-1.2672768E0,1.0523571E0],"categories":[],"categories_nodes":[],"categories_segments":[],"categories_sizes":[],"default_left":[true,true,true,true,false,true,true,true,true,false,false,false,false],"id":83,"left_children":[1,3,5,-1,-1,9,11,-1,-1,-1,-1,-1,-1],"loss_changes":[1.8509151E1,9.300444E0,7.889443E0,8.8760567E-1,0E0,5.9344416E0,1.1921899E1,0E0,0E0,0E0,0E0,0E0,0E0],"parents":[2147483647,0,0,1,1,2,2,3,3,5,5,6,6],"right_children":[2,4,6,-1,-1,10,12,-1,-1,-1,-1,-1,-1],"split_conditions":[3.973679E5,6.762843E-1,6.8684924E-1,-1.1765722E-2,4.6135634E-3,4.3605697E5,1.3278049E1,-3.7346042E-3,-1.2752313E-2,-3.379907E-3,1.0674425E-2,-1.2672767E-2,1.0523571E-2],"split_indices":[7,19,29,11,0,7,15,2147483647,2147483647,0,0,0,0],"split_type":[0,0,0,0,0,0,0,0,0,0,0,0,0],"sum_hessian":[4.394667E1,1.997532E1,2.3971348E1,1.6212955E1,3.762366E0,1.6545065E1,7.4262824E0,2.2973406E0,1.3915614E1,3.2928252E0,1.325224E1,4.748074E0,2.6782086E0],"tree_param":{"num_deleted":"2","num_feature":"35","num_nodes":"13","size_leaf_vector":"0"}},{"base_weights":[-1.3168606E-2,-5.715413E-1,9.6176547E-1,-8.6868936E-1,1.2040095E0,1.3481411E0,-4.9935362E-1,-1.028434E0,5.9968996E-1],"categories":[],"categories_nodes":[],"categories_segments":[],"categories_sizes":[],"default_left":[true,true,true,true,false,false,false,false,false],"id":84,"left_children":[1,3,5,7,-1,-1,-1,-1,-1],"loss_changes":[2.7736034E1,1.8130276E1,1.1150593E1,7.2596035E0,0E0,0E0,0E0,0E0,0E0],"parents":[2147483647,0,0,1,1,2,2,3,3],"right_children":[2,4,6,8,-1,-1,-1,-1,-1],"split_conditions":[5.0287706E5,1.1788946E5,5.6089023E4,7.8457855E-2,1.2040095E-2,1.348141E-2,-4.993536E-3,-1.028434E-2,5.9968997E-3],"split_indices":[7,5,8,33,0,0,0,0,0],"split_type":[0,0,0,0,0,0,0,0,0],"sum_hessian":[4.894033E1,3.138119E1,1.7559141E1,2.7319818E1,4.0613704E0,1.3948064E1,3.6110775E0,2.4909529E1,2.41029E0],"tree_param":{"num_deleted":"0","num_feature":"35","num_nodes":"9","size_leaf_vector":"0"}},{"base_weights":[-8.773841E-2,4.8767328E-1,-8.382809E-1,-1.2452672E-1,1.1892533E0,-1.0840944E0,5.397177E-1,1.2665468E0,-4.9102855E-1,1.350747E0,1.9658227E-1,-1.3090544E0,1.7640804E-1],"categories":[],"categories_nodes":[],